1507 100
店 -0.0023350953 0.0035115338 0.004570845 0.008903045 -0.008128969 -0.012954096 0.008203711 0.016630817 -0.007963501 -0.0052960985 0.00490382 -0.006155497 -0.0063972278 0.008205633 -0.0047070477 -0.0038926513 0.0027134619 -0.0028207563 -0.007805427 -0.016971417 0.010141723 0.007094521 0.009876686 -0.0004915164 0.0055345898 -0.0038978518 -0.005199045 0.0013948554 -0.010990589 -0.0030191077 -0.0031534124 -0.001151198 0.011702261 -0.00946333 -0.00292313 0.002372038 0.0076075546 -0.009625801 -0.0027123052 -0.011582547 -0.009478267 0.002237591 -0.009895439 -0.0037867734 0.0032062815 -0.0021904109 -0.009574415 0.008660853 0.006676053 0.012030308 -0.005818835 0.0024062863 -0.0052771713 0.00056833925 0.005956073 -0.003127896 0.006226939 -0.0075188 -0.007952756 0.010417201 0.00025303368 0.0017629287 -0.0055496125 -0.008805835 -0.0075005195 0.0054623657 0.00044242994 0.008639848 -0.0072627165 0.0068845786 0.0015024566 0.009040426 0.0025922654 -0.010748163 0.00859498 0.0027150882 0.006706175 -0.0011959714 -0.005845022 -0.007441322 -0.0028031159 0.001985849 0.0013238636 0.0132712675 -0.005955449 0.0020662935 0.0070489757 -0.0011229297 0.0015633297 0.009121954 0.0049824268 0.0014238253 0.0046843933 0.0010758509 0.017167982 0.009002731 -0.006437933 -0.011511205 0.0029622093 0.0053781616
料理 -0.009894373 0.0056038266 0.004753597 0.005643381 0.008416942 -0.009981583 0.0019864917 0.011083071 -0.004791491 -0.007073073 -0.0020340804 -0.0114360815 -0.006799772 0.008419052 0.0033203135 0.0057998984 0.006593802 0.005018256 -0.0035426018 -0.005637329 0.004335384 -0.0031935486 0.010430135 -0.01068892 0.0064513204 0.0025223086 -0.0077963863 0.0018176456 -0.0039625345 0.0075541334 0.012815723 -0.004427741 0.000766932 -0.007073941 0.0039336933 0.0055328794 0.0066006826 0.0034918466 0.0076539577 0.0048372988 0.007930622 -0.0088784825 -0.009967365 8.307183e-05 -0.0009045699 0.0065502375 0.0047003324 -0.002135463 0.0027400407 0.0036849754 0.009436867 -0.010785113 -0.0010544114 0.0034390646 -0.0028101576 0.009452983 0.010251543 0.0058417683 -0.0036807326 0.008213888 -0.007292162 0.00420521 -0.005584112 -0.0059360354 -0.00048815575 0.007436528 0.008776371 -0.0037218572 0.0044353865 0.009851583 -0.006389116 -0.0084673865 0.007875402 0.005414282 0.0019109473 -0.005323346 -0.007685881 -0.0026972375 0.002902778 -0.0029616563 -0.01056991 0.0033683423 0.0021973068 -0.0023838952 0.0010324857 -0.002008479 0.0006729228 -0.007757109 0.005840585 -0.0031716502 0.003480002 -0.00089489634 0.002966602 -0.007362542 0.0023539085 0.005213631 0.007169207 -0.005384975 -0.008201041 0.0038446318
メニュー -0.0010604985 0.005273761 -0.007144707 -0.0015067055 0.0088386675 0.0033345327 -0.0027023577 0.008230076 -0.010540601 0.0052504265 -0.0063172113 -0.0066418885 0.007790657 0.0023600685 0.007535798 -0.00780511 0.0049665286 0.006987239 -0.008232812 -0.010615633 -0.0050252066 -0.003251351 -0.001646909 -0.009482788 0.007409173 -0.005376392 0.0053619905 0.0023982811 -0.009069215 0.0046456405 0.008764034 -0.007407559 -0.0059686 -0.003911932 -0.008778655 0.0011537344 -0.00055765506 0.0005029699 -0.0006563292 -0.0057242503 -0.0057589794 -0.0003182377 -0.0015230952 0.0073245508 0.006378422 0.0030081847 0.00021752887 -0.003236938 -0.0032602316 0.0011661779 0.0031593074 -0.0038875248 -0.007982239 -0.007871017 -0.011117517 -0.004796258 -0.0004912775 -0.0049762665 -0.009430063 -0.0031945736 0.0055955783 -0.0025428159 0.0073128804 0.0007582412 -0.011718343 0.011548804 0.008466931 0.007905958 -0.01000247 0.00946139 0.001455253 0.0056474516 0.0070382208 0.00095130363 7.686558e-05 0.009614579 0.008950112 0.0036142846 -0.0052289683 0.0006798523 -6.553208e-05 -0.0092934165 -0.011288273 0.004204789 0.0011615395 -0.0057989266 -0.0041942396 -0.004891591 0.012014718 0.0018516185 -0.0019160166 0.0064107403 0.009880915 -0.003695955 0.013431353 0.008202666 0.007969301 -0.0027723669 0.009859751 -0.007996821
席 -0.009459562 0.011722324 -0.00035899878 -0.001984322 0.005480636 -0.007891621 0.0036007483 0.012272257 0.004053976 -0.008400069 0.0076298965 0.0015821365 0.0026188677 -0.004856272 0.008605804 -0.0038027265 0.008750685 -0.008267021 -0.007734724 0.0015874711 0.0038289025 -0.00072336046 0.011611884 0.008796477 -0.0103302505 0.002282945 0.0032772447 0.0009961575 -0.0003180476 0.0014856174 0.00344808 -0.0039187996 -0.005736257 -0.003520928 0.003971413 0.011765048 0.008903749 -0.008873221 -0.011376786 0.0049869856 0.003416915 0.0030814242 0.0055147433 -0.0022115647 0.009450386 0.0014720366 0.001619382 -0.0032262087 -0.0018671529 -0.0003159286 0.005977323 -0.0012838572 -0.010643677 -0.009964167 -0.008058165 0.0011682957 0.0034595262 0.008909373 0.0027900562 -0.0038095764 0.0015556471 0.0060581896 0.0065333545 -0.0017815735 -4.4855497e-05 -0.0038724 0.00040459083 0.010293419 -0.0054142834 -0.006138444 0.0034066855 -0.0035345037 0.0015464837 0.009047522 0.00074568385 -0.003567705 -0.005584674 0.006671399 -0.008252389 0.0029222951 -0.006745877 0.005617251 0.0017442488 0.0069757667 -0.0015763446 -0.0026399603 0.009620131 0.0077037886 0.0012406617 -0.008057758 -0.0049258224 -0.00026142207 -0.00013129682 -0.0022042326 0.014749229 0.0022713137 0.008050262 -0.01057276 -0.001021715 -0.006330304
注文 -0.0080817435 0.0028052542 -0.0073596356 -0.0023554047 0.0045197657 0.0030905786 0.0017920835 0.0059815384 -0.0056873267 0.006536676 -0.007671117 0.002212151 -0.009351473 0.0032733583 -0.0050614025 -0.0054259584 -0.0032070205 0.0036228476 0.006067172 -0.008837181 0.0022966624 -0.007406729 0.009599955 0.00857543 -0.0031270306 0.0005120053 -0.0013804522 0.0034443936 -0.010449783 0.0011937866 0.009072364 0.0022039178 0.0021406955 -0.010407804 0.008525744 -0.004209246 -0.0031464212 0.001401048 -0.0023888082 -0.0018748612 0.0017315955 -0.0083304355 -0.010315398 0.009443887 0.008108607 -0.008004196 0.0026240712 -0.0001942663 0.0056376085 -0.0056669107 0.005375376 0.0034602974 0.009263144 -0.0045938636 -0.0027859597 -0.0065919706 -0.008640576 -0.009620875 -0.0032638558 -0.0062355 0.0058240336 -0.0054788524 0.0019077573 0.00025087228 -0.0065757753 0.00050716614 0.0108085405 0.01079463 -0.006808122 0.011742301 -0.007622147 0.006161845 -0.0010552622 0.0029159696 0.00530697 0.007889913 -0.0028223647 0.008617863 0.005801622 -0.008941782 -0.00901676 -0.007998165 0.0009360655 0.0003186728 -0.006846076 -0.008324441 0.008837489 0.0037894426 -0.006857222 -0.0037125233 0.005153809 -0.004095706 0.00600319 -0.003991883 0.006648904 -0.005998635 0.0077350033 0.0024916353 0.0019727368 0.0024059704
飲み放題 -0.009693608 0.003950058 -0.0013741346 -0.009455146 -0.008620201 -0.0046300176 0.005287681 0.008205153 -0.00814729 -0.0077887163 -0.006711103 -0.0048816334 -0.00856583 -0.008474508 -0.0028428824 -0.009722541 -0.0060949274 -0.007895957 -0.0020566338 -0.0059820125 -0.00740803 0.00047304019 0.009933133 0.006895379 -0.00753564 -0.0039116144 0.0005938941 -0.01176754 -0.0006124269 0.00719288 0.008312566 -0.0090558445 -0.0034026676 -0.00947413 -0.0002202776 0.011947722 0.00573746 0.0028073608 0.0034880596 -0.0070381286 0.009497005 -0.00899372 -0.00783488 -0.0019110306 0.0010359192 -0.00429674 -0.0018780179 0.0068634218 0.00032533624 5.8804668e-05 0.004143296 -0.009644871 0.0071631004 0.008454395 -0.011002049 0.003435309 0.011017783 -0.008193031 -0.009299396 -0.007261871 0.009411604 0.00024395132 0.008280435 -0.008697664 0.00013663725 0.004439502 0.0017623615 0.0040044747 -0.010103811 -0.0065202946 0.00018479422 0.0067749354 0.010387618 0.004981565 0.0017563173 0.009404562 -0.009823442 0.003096254 -0.0016351795 0.0044775144 0.0062893317 -0.007281467 0.0030413084 -0.0058697094 -0.00089716323 -0.008661553 -0.004617356 0.011466707 0.00090083486 0.0042501413 0.01114361 0.009656924 -0.0076191067 -0.0028015755 0.0142562995 0.0076016183 -8.815748e-05 -0.011301944 0.0042776456 -0.0074191764
方 0.0071289 -0.0027105932 -0.0014585627 0.0010484303 0.0007423338 -0.0023237322 0.0071977247 0.0046202624 -0.0047919946 -0.002355626 0.0045439503 -0.0011078784 -0.0019056844 0.01037844 -0.004832528 -0.0020161783 0.0089301355 0.0044237175 0.0018024647 -0.013533157 0.0029367832 -0.0010645028 0.011280537 0.0002735599 0.0011612815 0.002247676 -0.004363933 -0.0073255934 -0.0017029378 -0.0012959321 0.009230609 0.008835799 0.00030439353 0.0017506119 -0.0062452108 0.0040804665 -0.0072572636 -0.010898452 -0.0076531745 -0.0129003115 0.0071791895 -0.007455804 0.0077709667 -0.006995866 0.005570033 0.008427187 -0.00881762 -0.010570784 -0.003118855 -0.0009300825 0.0012556469 -0.009954402 -0.009401828 0.002855102 -0.009727376 -0.0082651405 -0.0014242894 -0.009253951 -0.009545752 -0.008151164 0.0007215659 -0.0039498806 0.005747095 0.0008598802 -0.0069889557 0.00790401 -0.005035976 -0.0028505845 -0.009775325 -0.0015590896 -0.0039231735 0.006938577 -0.00048812685 0.0038993831 0.009457245 -0.006306997 0.0039057932 0.0059483545 -0.0050736116 0.0074149673 0.005191752 -0.007015266 -0.009347673 0.0062129786 -0.0017127625 -0.0061628134 0.009969096 -0.0031837174 -0.0038691123 0.0013416518 -0.00066234614 0.0011245601 -0.002661917 8.917615e-05 0.004030561 0.0030988252 0.009785032 -0.0085319 -0.000419886 0.004845889
ランチ 0.0073577235 -0.0026085307 0.008866311 0.00847804 -0.0037257597 -0.0033756692 0.005358609 0.0004581556 -0.0072758053 -0.0073800166 -0.0021254597 -0.0029959644 0.0033711502 -0.001309066 -0.00010124534 0.0010949854 0.0047696526 -0.002736368 -0.0062838495 -0.01399118 0.0018380583 0.008266639 0.0031509136 -0.009700637 -0.008260558 0.005981079 -0.0063729403 0.0038014925 -0.008877036 0.009253993 -0.0039246627 0.003149337 0.00014321509 -0.007733048 -0.0033111009 0.0013612915 -0.0058460264 -0.0035662234 -0.009524708 -0.0017649498 0.009048455 -0.00403316 -0.0015832244 0.0040472024 0.01081411 -0.0071604517 -0.007955019 -0.0035130442 0.010178802 0.0027263218 -0.007229275 -0.0028332558 0.008568802 -0.0077778567 -0.007184636 0.01047404 -0.007889288 0.0033924093 -0.001974129 0.0072605046 0.00952566 -0.0019113407 -0.00497518 0.008267622 -0.0018426713 0.008181977 -0.008587329 0.011613244 -0.0040850407 -0.0031988306 0.00043534304 4.4649143e-05 0.0070854747 -0.003138979 -0.0015663678 0.0036195316 0.007925579 -0.0050964593 0.00052012905 -0.007446431 -0.0079680085 -0.00084566866 -0.0112437345 0.0069282018 0.0012919359 -0.0019829292 0.0055652857 0.012036265 0.011425585 -0.0004262856 0.0043187146 -0.0033203613 -0.00792611 0.0067872526 0.00286561 0.0017151757 -0.00017500117 -0.007370514 0.005163364 -0.0049573635
味 -0.010779947 0.010608256 0.003837411 0.009318087 0.0075918543 -0.00036003423 0.0108940685 0.00014840423 -0.0084668305 0.0035269947 0.0024274897 -0.0083196275 0.008580592 -0.0025262802 0.0096571045 -0.00035572992 -0.006518648 -0.004674969 -0.0071412288 -0.0075854436 0.0027230827 0.010807436 0.011146435 -0.0077861273 0.003108032 0.0020199206 -0.0049221986 -0.011779694 -0.0010889579 -0.0075927335 0.009224007 -0.005663054 0.006697942 0.008737445 -6.0829352e-05 0.0069325436 -0.00204725 0.005080103 0.0020817153 -0.013239593 -0.0023114881 0.0020164473 -0.00083500263 -0.00081836473 0.0012127332 -0.0029059385 -0.00037514756 0.003664175 -0.0034044199 -0.0019795182 0.0014574245 -0.0007772939 -0.0010350558 -0.004879777 0.0025243792 -0.001317724 0.0031628993 0.00017005502 0.003302243 -0.0066313436 -0.005640604 -0.003705853 0.008568989 -0.002292958 -0.013132268 0.0011711103 -0.003556877 0.008047005 -0.012190146 0.0056166057 -0.011616243 0.0015976232 0.00832692 0.0063596214 -0.0050279247 -0.005138756 -0.0074030096 -0.008020842 -0.0116476 -0.0013084054 -0.0020850925 -0.007877789 0.004332482 0.004992396 0.005654629 0.0015895743 0.0013870989 -0.0054387106 0.00043673365 0.00572425 -0.0027648779 0.0016998671 0.0036445658 -0.0010857324 0.014674801 0.010633247 0.0040857038 0.004376648 0.007179091 -0.0062578553
肉 -0.006276931 -0.0049052034 -0.008307004 0.008308149 -0.00062482606 -0.010766452 -0.0031760081 0.010156156 -0.0048308354 -0.00439154 9.548746e-05 -0.005722743 -0.0027903933 0.0026401337 -0.0027510894 0.0073938407 0.003794632 -0.012887722 0.006502219 -0.011794771 0.0025759726 0.006046255 -0.0032700805 -0.0029390268 0.007913517 -0.004759032 -0.010674288 0.0067010606 -0.004708683 -0.0039556012 0.0118180895 0.0043931003 0.0056359954 0.008083478 -0.008417142 0.008128873 0.0019086573 0.0016899934 -0.00011555669 -0.00032891534 0.0043161404 0.0041030757 -0.003910818 -0.0040350053 0.0018429469 0.0016393216 -0.0047820234 0.0056402003 0.0051792855 0.009814537 0.0045476477 0.0069921627 -0.0023185818 0.008098709 0.0016187298 -0.0069921063 -0.0029069616 -0.003092033 0.0020469003 -0.00038579147 -0.0014724332 0.008878578 0.008330058 -0.0022663397 -0.009023923 -0.0028780997 -0.0037072564 -0.0074020247 -0.0017503448 -0.0008798568 -0.00024764912 0.005977992 -0.001707555 -0.010563552 0.004308808 -0.005501379 0.0017640947 -0.003915968 0.0046377154 0.0014622505 0.0023738504 -0.003503535 -0.0043423255 0.011785864 0.0011809128 -0.0054744375 -0.0073807193 0.003523794 0.00971072 0.007152858 -0.006390607 0.009354234 0.004666438 0.008014028 0.014725031 -0.0047973986 -0.007149686 0.0030299067 0.011059731 0.0025702987
店内 0.00617281 0.00018671309 0.0077427607 -0.009508737 -0.007377706 -0.009605749 -0.0034208053 0.009204771 -0.005598142 -0.009331901 0.007087738 -0.006256043 0.0075799045 -0.0038327042 0.004008716 0.0035753977 0.0023311137 -0.0050060092 0.0030423175 -0.012381577 -0.0011116631 -0.001461705 0.008802374 -0.004140842 -0.0070168343 0.004021743 -0.0026786968 -0.005872684 0.005140993 0.0044557834 -0.0017772688 0.00060730346 0.010337153 0.006595974 0.0062653613 0.0069249407 0.002109413 -0.0040090354 -0.0077934205 -0.0038696679 -0.0015440526 -0.0020621058 -0.006713782 0.007887302 -0.0049978937 -0.008380776 -0.0038131666 -0.0019279487 -0.006682481 0.002298256 -0.004092667 -0.0024842317 -0.008208109 0.0018551291 0.001872716 0.0009435545 -0.0044017513 -0.0022736455 0.0049305796 0.004192941 -0.00788441 -0.002679143 0.0015777139 0.0016897713 -0.01288925 0.006233853 -0.00791844 -0.005762895 0.001063452 -0.0008335985 0.0017313275 0.009364021 -0.0015549038 0.008477196 0.003943072 0.010748531 0.00547872 -0.009566626 -0.0051815324 0.0072530503 0.00458382 0.008432911 0.0047904435 0.011232238 -0.009869308 0.0043271743 -0.0046758726 0.005472529 0.008690857 0.0056989193 0.0094682835 0.002082146 -0.00073859165 0.0061949403 -0.0017649631 0.0022033695 0.010914359 -0.007907875 0.0048812153 -0.008611458
サラダ 0.009022228 0.0101303235 0.000940549 0.005166415 0.0025527056 -0.009986854 -0.00055781554 0.0109744305 -0.0062992782 -0.0048038964 0.0036770054 -0.00013473172 -0.0031398977 -0.0017491744 0.0064249504 -0.0070260786 -0.0031933726 -0.009193287 -0.0041181403 -0.013172509 -0.0029132874 -0.0068375096 0.0030264275 -0.009488142 -0.01020298 -0.008528003 -0.009389992 0.004350711 0.0017050188 0.001102859 -0.0002418639 -0.00758232 0.0016119084 -0.0005978638 0.00017395685 0.0032030884 0.00045680525 -0.0023861513 -0.009673531 -0.010086599 -0.008571871 -0.0030395028 0.0010719955 0.007784168 -0.00019913018 -0.0035771283 0.008399506 -0.000517062 -0.0013625865 0.010563613 0.0043795495 -0.006703 0.005863475 0.0045615733 -0.0089799585 0.0008154762 0.0019228806 0.005270585 -0.0040856157 -0.0021230467 0.002760258 0.0016654463 0.00010852161 -0.0033785761 -0.009680251 0.009091474 0.0086468365 0.010323666 -0.01126044 0.0055140294 -0.005746995 0.010040106 0.005134167 0.0036006053 0.0046604173 0.007970382 -0.006276758 0.007885166 -0.0045812745 -0.0038384397 -0.0031991815 0.009058307 -0.009313609 0.0014787406 0.007010632 0.00021381577 -0.0060266983 -0.0041774646 0.011758798 0.007827558 0.007111798 -0.0024562587 -0.008833017 0.004152655 0.011734085 -0.0034033072 -0.006297763 -0.0057653454 -0.003626583 -0.0031054907
個室 -0.0029203983 -0.0033996645 0.009364549 -0.009239138 0.005191502 0.0026748164 -0.00063915306 0.01330687 0.00828915 -0.0063743214 -0.007290359 -0.009207121 -0.008655102 -0.0024573936 -0.005524603 -0.009560387 0.00078912 0.0008592284 0.006726838 -0.006544203 -0.0029040903 0.0021944721 0.0019220201 0.0075494647 -0.0005052822 0.007148303 -0.010356218 0.006235842 -0.0034249832 0.009263252 -0.0056505813 0.00181173 0.0020270424 -0.0010839037 -0.0053210882 -0.0075526517 -0.0076540397 -0.010084467 0.00065951596 -0.0027493585 -0.0016990305 0.0057680863 -0.0029343828 -0.0010503503 -0.00726604 -0.01105572 0.007899904 -0.006327631 -0.0054498427 0.0066677947 0.0077339853 -0.007880278 0.00019002632 -0.006174839 0.00020552923 -0.0035242657 -0.0024623144 0.0018078978 0.006608898 0.0072638835 -0.008757781 -0.005032744 0.007305763 0.0015513819 -0.007582549 0.0020921861 0.010253131 0.00030476163 -0.01154 0.00407147 0.004776119 0.006630965 0.0061598197 -0.006704779 0.001850961 0.00074191263 0.0044610933 -0.008533699 -0.0098548 0.0009995112 -0.009697533 0.005636176 -0.0024690658 0.013134073 -0.0054476494 -0.00045615362 0.00810045 -0.0023517855 -0.0027120444 0.0027260738 0.004404285 -0.0021529521 0.0069644353 -0.0071196076 0.0072486503 0.002449723 0.01013667 0.003652333 0.0077802967 0.007411859
コース -0.0107211275 0.011381046 -0.008125576 -0.002818099 -0.0038048972 -0.008699384 -0.0073288195 -0.0031820145 -0.006311088 -0.00220041 -0.0066191624 0.003457302 -0.011054927 -0.0039348877 0.009640296 0.005725221 0.0074211746 0.0019061962 0.0007169116 -0.010750765 0.007827104 0.003903575 0.009480288 0.0058239824 0.007592399 0.008488029 -0.012484635 -0.009164088 -0.0008868426 0.006996127 0.010117484 0.005423179 0.009018601 -0.0064544207 0.006567573 -0.001415281 -0.009422624 0.006776183 -0.0003384351 -0.006812933 -0.0024617512 -0.006100544 0.004086885 0.0047274837 -0.0005947436 -0.0082924515 -0.004843756 -0.00086525094 0.007171207 -0.0010523377 0.0014439971 -0.00038878105 -0.00776446 0.002177251 -0.0032798457 0.003860053 0.0059226346 -0.0018980886 -0.00561801 0.008267656 0.006136058 0.0076811626 0.0035991694 0.008012262 0.0039695646 0.00072794047 0.009754972 0.006567327 0.0027936099 0.0015853595 -0.0043001436 -0.0038249474 -0.0059669246 0.0020509197 0.011494436 0.010192405 -0.0024215658 0.005854383 0.0017380702 -0.003780613 0.00070789247 -0.0060116397 0.0057730693 0.009027952 0.0033397079 0.004284664 0.009252575 0.009525837 0.0022766185 -0.00576195 0.010712024 0.0080173435 0.0025010714 -0.0008194076 -0.0015194342 -0.0019062274 0.010258411 -0.005929398 -0.005016955 0.009349467
予約 0.0067157876 0.010930236 0.0008649156 -0.008295477 0.009261744 -0.006875608 0.0067060757 0.008603379 0.008291637 -0.010047885 0.008001215 -0.011804964 -0.007897403 -0.008154869 -0.005442321 0.0061850073 0.009096655 -0.0057607954 0.004016219 -0.0078338655 0.009448972 0.006990711 0.0016583384 -0.004406535 -0.0077303015 0.0045622652 -0.0008452951 -0.0051141353 0.005795168 -0.0035680807 -0.0067400495 -0.002383746 0.0013579436 -0.007753982 -0.0057864105 -0.0062912283 0.009012782 0.0052941917 -0.0019862938 0.0036990354 0.008115248 -0.002350505 0.006035512 0.004054477 0.0070007187 0.0062209168 -0.0057392437 -0.0028286614 0.0018893909 0.005917537 0.004616561 0.0039813034 0.0038303814 -0.008552317 -0.0047805547 -0.006405123 0.010718225 0.004603862 -0.0022659996 0.004452226 -0.0065467046 -0.005519976 0.0021561491 0.0060123946 0.0005347431 0.0075914017 -0.0011967795 -0.001670542 -0.0023050238 -0.00065023673 -0.0076238047 -0.007411865 0.00866655 -0.0020501246 0.00047668247 -0.006779625 0.009097077 0.0007950114 -7.272792e-05 0.003141274 -0.008486948 0.0013405381 0.00068562705 -0.00504664 0.0048432318 0.00249361 0.007976054 0.007008159 -0.0005541345 -0.0059907413 0.009176251 0.0024860401 0.0058542523 0.0068750973 0.0063085845 -0.0038153657 0.0014689898 0.0057621975 -0.0050847246 0.008895115
ハンバーグ -0.00835801 0.005757386 0.0019180821 0.0072391112 -0.004049401 -0.007634373 -0.0052737887 0.00757516 -0.0060181445 0.007929448 -0.0056162663 -0.011393332 -0.0062170476 0.007434406 -0.0065953787 -0.0063719354 -0.007194974 0.0041366634 0.0035870685 -0.00083607336 -0.0016843221 0.006902274 -0.0045714537 -0.0023599337 -0.0061330684 -0.0010927957 -0.004367829 0.006176369 -0.0018828235 -0.008098225 -0.003327492 -0.0069467253 0.0038442356 0.008298358 -0.0057615917 0.010548093 0.008205027 -0.009224324 -0.010258132 0.0060908915 0.008252368 -0.006162383 -0.0073165037 0.008118916 0.0056096814 0.007289996 -0.008498541 -0.010092785 0.0025401474 -0.00844121 -0.003703279 -0.0044021714 0.009010613 0.008563864 -0.0044768997 0.0068716854 0.009203751 -0.0026247732 0.0075043016 0.007441204 0.0028567547 -0.0032125027 -0.0059611057 -0.0036303508 0.004952161 -0.0047223307 -0.002155282 0.010838098 0.001381046 0.008690755 -0.010394685 -0.00022657182 0.0075421296 -0.0056081326 0.00989916 0.010635842 -0.00087325764 -0.0022482248 -0.0022062652 -0.0053632916 -0.009433277 -0.0017944805 -0.0046065757 0.007772876 -0.006935371 0.0059043397 -0.0062063676 -0.0059835967 0.011186255 0.009981717 -0.0017907913 0.004155989 -0.0054590213 -0.008249201 -0.002042849 0.0090690935 0.0077096387 0.0071510975 0.008142918 0.0062061846
中 0.0003685498 -0.008185229 0.004410338 -0.00043498285 0.0072287526 -0.0013729533 -0.0023467862 0.011889514 -4.6363286e-05 -0.00070179155 -0.0060122237 -0.011053016 -0.008712609 0.009919218 -0.008895339 0.007850873 -0.009390671 -0.0025244048 -0.0017478382 -0.013102754 0.010220378 0.007962112 0.0047288747 0.0042736726 -0.00029187597 0.009103797 0.004684947 -0.0120689 -0.006387823 -0.0005033588 0.005357231 -0.0043339934 0.0027337766 -0.008926929 0.002810044 0.0068614255 0.0047233924 -0.005339354 -0.009887331 -0.012907342 -0.00079750485 -0.008923364 -0.007277025 0.006671217 0.008781676 0.0011263957 -0.008899228 -0.006014762 0.008927635 0.0055201137 -0.003907404 -0.0083893575 7.390369e-05 0.0033958096 0.00038790857 0.0039451607 -0.004690101 -0.010535248 -0.009400352 0.00062503864 0.005629237 0.0053715003 0.0009523484 0.0046458314 -0.0034948399 0.005703129 -0.008306878 0.009383397 0.003688813 0.0076978137 0.0051699625 0.008609651 0.002659578 -0.0026967977 0.0028094836 -0.008453007 0.008022288 -0.006595758 0.0067220023 -0.003710295 -0.0005898659 -0.009539474 -0.011732394 -0.0044660945 -0.0077493396 0.0002927373 -0.00682044 -0.0029679372 -0.0026058173 -0.0029514155 0.008998581 0.005480773 0.009179819 0.0075954995 -0.001619707 0.009343902 -0.007816814 -0.005112533 -0.0066491496 0.003675124
ドリンク 0.0010206506 0.008420084 0.0026877937 -0.007015384 0.008310796 -0.008653409 0.009660697 0.006609275 -0.005333695 -0.005339904 -0.005449971 -0.0084073 0.008354074 -0.0016783971 0.0078099323 -0.0107210465 0.002172797 -0.0030926133 0.007570952 -0.012495707 0.008805402 -0.0041367947 -0.004512261 -0.006370266 -0.0036231144 -0.003684946 -0.005208831 -0.009379467 -0.0009131324 7.349658e-05 0.00035561415 0.0038106749 -0.006801914 -0.004034287 0.005174998 0.010511523 -0.0101470435 0.0053378036 0.003994707 -0.0070086676 0.008630035 -0.0106560085 0.006654007 0.005766008 0.0029066266 -0.0061850143 -0.0051320246 -0.0038171746 0.0024506503 0.003011949 0.008777347 0.009061865 0.008296214 -0.0041265953 0.008331046 0.00020761356 0.005915768 0.0022361246 -0.0025811635 0.00400894 -0.0046018874 -0.0050719995 -0.008346285 0.001417851 0.0035495092 0.0023841388 0.0020229365 0.004682062 0.0061187623 -0.005387116 0.0004133733 -0.0073418696 0.0055182865 0.008929952 0.009366765 0.0073668873 0.0074901264 0.006370495 0.0052465065 0.0093099205 -0.005867358 0.008927145 0.0031793066 0.0007862414 0.008542372 0.005136121 0.010043913 0.0043243095 0.012116065 0.0024027587 0.010858875 0.004079164 0.0072559826 -0.0032836837 0.01054391 0.009087882 -0.00068164966 -0.0040100478 0.004631155 -0.007675497
サーモン 0.008888808 -0.008239972 -0.006919729 0.002943647 0.007291717 -0.008553921 0.0037604275 0.013532298 -0.008521493 -0.006798516 -0.0061026486 -0.0060161464 0.0008793069 0.010819056 0.0067010215 -0.00058659003 0.0024646171 0.0060273837 0.009231842 0.0014436516 0.007592788 -0.006412643 -0.0021574106 -0.0064612264 0.006148156 -0.0023691452 -0.011410749 0.0053739464 0.0063394667 -0.0027376132 0.011662304 -0.00049292704 -0.002505722 -0.0016469057 0.00018612108 -0.0012716942 0.0026053349 0.0033021783 0.0052517634 -0.0128703695 -0.0026127843 -0.007149471 0.007014511 0.006704363 -0.0026048168 0.0012812135 -0.007182869 -0.0001377996 0.010556371 -0.0011408012 -0.0033279625 -0.008718962 -0.0038290084 -0.00092083553 0.0017681115 0.010645937 -0.0025931222 0.001714347 0.0074523953 0.0019224761 0.0021032086 0.010704024 0.008183249 0.0071795485 -0.0095625995 0.011743634 0.0066860556 0.011172525 -0.0046626716 0.0060003777 0.004613313 -0.0035726258 0.008627977 0.001769328 0.011573699 -0.0019307206 -0.0037133095 0.0064035067 -0.011196585 -0.0066784536 -0.0075402767 -0.001141187 -0.004640358 0.010404353 0.009053174 -0.00048553394 0.0017495961 0.0038268596 0.0003881453 -0.0067855227 0.009510597 -0.0034887984 0.005153264 0.009912866 0.007253108 0.0052916924 0.005648786 -0.00549272 0.0051874467 -0.000352757
何 0.0046957587 0.006940285 0.0015228061 0.0059705544 -0.008234514 0.0039239703 0.009902458 -0.0007015591 0.00029084604 -0.0059028906 -7.203437e-05 0.00074033317 0.0072279144 0.0014683454 0.002625853 0.00028838805 0.008410353 -0.0077349194 -0.0061389166 -0.0071406127 -0.00089398527 0.006230046 -0.0066879597 -0.003389668 -0.0084193265 0.0048578796 -0.004631203 -0.0108872345 0.0024763742 0.00961877 -0.0012418686 -0.005950397 0.003930904 -0.0013573214 -0.010002398 0.0103675695 -0.007550209 -0.0068142926 -0.0038694015 -0.008542122 0.0016930756 0.008473098 0.004147311 0.008329227 0.00100485 -0.00027484374 -0.003470803 -0.00921645 0.004268161 0.0035958602 -0.008215751 -0.00592354 -0.010456481 -0.0058152373 0.0026416965 0.009411568 0.005072068 0.002033596 0.006318484 -0.00069841684 -0.0005921281 -0.008056186 -0.0009326737 -0.0032222837 -0.0025152331 0.008700685 -0.0063134506 -0.002428187 -0.008687731 -0.0013243834 -0.0051083635 0.0024633678 0.005123378 -0.005689756 -0.0027019854 0.0020494417 0.005019785 0.0052928682 -0.0046507646 -0.003682822 -0.0064938576 -0.0009632075 4.5151748e-05 0.004554003 0.0074085835 -0.0026106 0.0002762491 -0.0038870615 0.0009961625 -0.0066838325 0.0007243866 0.001877891 -0.008092403 0.009143422 -0.0056209574 -0.007920747 -0.007256212 0.005203342 0.006445051 0.008698614
焼き 0.0018239862 0.0022922095 -0.002657013 0.009627174 0.0035449064 0.0013300423 -0.0004759332 0.0043597706 0.0052876505 -0.0014356859 0.0023685629 -0.0032287773 0.00452108 0.004603324 0.0026582144 -0.0063696303 -0.004803267 0.0021452082 -0.005801031 -0.003882328 0.00087011233 0.00458621 -0.0071061864 0.008132878 -0.0019374513 -0.0056143203 0.0021693655 -0.0038206936 -0.009562026 -0.0040425635 0.0018212143 -0.008949574 0.0014267337 0.0016424835 -0.003111973 0.0043331324 0.0023076942 0.008352247 2.3458364e-05 -0.0012861274 0.0026496458 -0.0033028747 -0.009377051 0.008598876 -0.0005414539 -0.010816361 -0.00745767 -0.004391647 0.0048153107 0.0067404187 0.0072634844 -0.0077498225 1.5898102e-05 -0.0030615546 -0.006424697 0.00793226 0.0048303083 -0.0034378867 -0.0101443045 -0.00481326 0.00012984627 0.008534823 0.0054571144 -0.009019045 -0.012682379 0.008492113 -0.0015648116 -0.0021094277 0.0036184639 -0.0037625267 0.0034694665 4.7649555e-05 -0.004984204 -0.001212331 0.00843813 0.010142303 0.0019143032 0.0047957646 -0.0067185694 -0.000142213 -0.0062168543 0.0009088588 -0.0037196614 -0.00071144535 -0.007117405 0.0098006185 0.0031999138 -0.0006854603 -0.0016512711 0.008909734 -0.0046577733 0.0037608878 0.0013475749 0.008547842 0.010788379 -0.0010374435 0.0039967373 -0.0037377155 -0.008496409 -0.0032255421
スープ 0.0006225256 0.008149327 0.009886078 0.00925105 -0.007333303 0.0034337223 -0.0049181 0.003163434 -0.0006046092 0.005988407 0.003045799 0.0022121298 0.008187336 0.0015240548 -0.0060727526 -0.0074085924 0.006533385 -0.007753428 -0.0027147424 5.4527616e-05 -0.00076442974 -0.0046217456 -0.000631869 0.0006064482 0.0016277978 0.005813161 -0.00760626 0.000873543 0.0053519155 0.0026578598 0.00770377 -0.0049983775 0.0070912065 -0.00848629 0.0036366591 -0.00725134 -0.002749588 -0.011354266 -0.0031685857 -0.009133276 -0.004074292 -0.0002820808 0.002455374 -0.0010289314 -0.006128988 -0.007026333 -0.00038482263 -0.0043491465 -0.008509945 0.0007752313 0.008050528 0.005042401 -0.01074492 0.0030643048 -0.0075897016 -0.0083257845 0.001171931 -0.00084835023 -0.009155627 -0.0058846585 -0.0015694863 0.008037718 -0.008520149 0.007120865 -0.0036838846 0.0026522607 0.010338949 0.0067853313 -0.0058981143 0.006185413 0.0014872915 0.006595059 0.0020438712 -0.0051673916 0.0035191365 -0.004444769 0.0009819276 0.004749294 0.0033886652 0.009876064 -0.008582401 -0.0057402453 0.0044521857 0.0047736205 -0.006521978 0.0009994112 0.0031831504 -0.0004194217 -0.002252259 0.0063565043 0.011789878 -0.006916007 0.00031702567 -0.0020689408 -0.00196325 0.00094218587 -0.003789221 0.0066370014 -0.004601664 0.00277062
感じ -0.0010866049 0.005816041 0.0018796492 0.009930675 0.0012263056 -0.008111008 -0.00035863253 0.0057645384 -0.0046315407 -0.00864193 -0.0068413154 -0.008867425 0.005397698 0.00477359 0.008174927 0.0055133575 -0.00616238 0.0007982137 0.008669878 -0.001998954 0.004401462 0.006616224 -0.0074399128 0.008486909 0.0065772515 0.008346558 -0.010325368 0.0043702354 0.0050892704 -0.0007462345 -0.004296835 0.005398941 -0.0061360747 -0.0063841096 0.0033231035 0.00986215 0.008418721 -0.00619841 -0.0105124265 0.0065417034 0.0064093587 -0.005354612 -0.008871643 -0.004528164 -0.0024203942 -0.004215325 -0.000104844396 -0.00091348565 -0.0023044124 -0.004659618 0.010472009 -0.005705384 -0.007877563 0.0076944274 0.0010153578 0.009481644 -0.0034520193 -0.0071326136 -0.00089728925 -0.0006441519 -0.008734052 -0.0010792187 0.0024358674 0.005988045 0.0039816224 0.004680181 -0.003724349 -0.0006535305 -0.005911423 0.008131362 -0.00819023 0.0023615016 0.00046193393 -0.0064959372 -0.00538901 0.0069347075 -0.008679659 -0.0008397513 0.0011698671 0.008485501 -0.008093566 0.0028656833 0.008086324 -0.004081242 -0.003560737 0.0052806847 0.0056765024 0.0033064338 0.010123224 0.0018839719 0.0034074092 -0.00096882135 -0.0077511515 0.0037147584 0.00530977 -0.0070420797 0.0005665572 -0.0020291628 0.0010490778 0.008390205
オーダー -0.0034098597 -0.004379521 0.0070866486 -0.007459521 -0.008188139 -0.004641422 -0.0077395546 0.004430406 0.00044319767 -0.0032699427 -0.0075548533 -0.0027263113 -0.0022424357 0.0043032956 0.008247068 0.00464818 0.008424242 -0.010894303 0.009649308 -0.006082092 0.010181457 0.0034165913 0.005217847 -0.010292636 -0.009868112 0.008634413 -0.005144726 0.00075215497 0.004662944 0.00021325072 0.011930835 -0.0010593737 -0.008801231 -0.008385458 -0.0011907716 -0.006691635 0.0072419276 0.0018438058 -0.010231747 0.0050910427 0.008969536 0.0044496106 0.0065458533 -0.009219553 0.002242019 -0.010455912 -0.004826346 -0.00020587888 0.0007352973 0.0029144532 0.0046057305 0.0009527898 0.0047480357 0.0073919534 -0.0073864334 0.008998717 0.0070137847 0.00952918 0.0026701582 -0.0028210045 -0.002749619 0.00012607119 -0.0025541193 0.009268037 -0.0019929302 0.005452992 0.0041723847 -0.0072342567 0.0045542694 0.010750727 -0.0035140677 0.0027345093 -0.004375243 -0.0070028407 0.010497405 -0.0022041479 0.0063526602 0.0013139733 -0.003801805 0.003602486 -0.0048858533 -0.0024149285 -0.00079552917 0.00791673 -0.0015453605 0.0005137099 -0.007613585 0.011406647 -0.006421896 0.008216285 0.00561547 -0.006323292 -0.0048155505 -0.007983636 -0.001272618 0.00897988 0.011195074 -0.00016455639 0.0018377934 0.008921119
盛り合わせ -0.0058569345 0.00018677738 0.0031213595 -0.0063673477 -0.00899219 -0.0119860135 0.009745854 0.009407319 -0.0062376247 -0.008965529 0.00022612372 0.0005409474 -0.0021483286 0.0025452732 -0.0044027083 0.0036407716 0.0012933635 0.00682523 -0.009994285 -0.008970602 -0.007818757 0.0007896168 -0.0064439354 0.004417659 -0.0068438873 -0.006287894 0.0029594523 -0.010292191 -0.00034418495 -0.006463293 0.012233204 0.008688482 0.00263267 0.0048647984 0.004657902 -0.004244589 0.009666978 -0.011801311 0.00646538 -0.0005328096 -0.0032611957 -0.005121388 0.008458148 -0.0050352234 0.009816425 -0.007261713 0.0075470544 -0.0007336392 0.009194624 -0.0016662483 0.0074916887 0.007908444 0.0017263062 0.0010920174 0.0036491402 0.008797584 0.009433653 0.008002109 0.005131607 0.008243752 0.009603169 0.00072629587 -0.0018362947 0.00093857915 -0.0032502923 0.0021680142 -0.007756055 -0.007975693 -0.0044929604 0.011474308 -0.0055630966 -0.00681498 0.006735407 0.00037687912 0.004126936 0.0045674224 0.0029219661 0.005976937 -0.00067058625 0.0012351532 0.007950257 0.0023136842 -0.0069253487 0.009695815 0.0049712537 0.0027304273 -0.002756033 0.0050206347 0.008829874 0.008289525 0.0026704408 -0.008028678 0.0009023714 0.0006531031 0.008033684 -0.007446631 0.011286753 -0.009232938 0.006977218 -0.010167853
時間 0.008982441 0.008532173 0.0010915478 -0.0033771829 0.00017032982 -0.00201554 -0.00586251 0.008840207 0.0010863456 0.003081628 -0.008330332 0.006657454 -0.00021117408 0.00070529914 -0.009114959 0.0032066954 0.0066264663 0.0059662308 -0.006341605 -0.010985064 -0.0042926404 0.00017151545 -0.0071310713 -0.008782497 -0.0021178983 0.0008354733 -0.011250331 -0.0053325207 -0.0008193785 0.007286156 0.003507986 -0.00077518926 -0.006687337 -0.007705203 -0.000755198 0.009127323 0.0052114506 -0.0030178593 0.00012633111 -0.0123382015 -0.00136485 -0.0057070307 0.0053636353 -0.0020263668 -0.0035008048 -0.01029631 -0.002021252 -0.007531004 -0.0008384839 -0.0029359239 -0.0013587918 -0.004118606 -0.0086896205 -0.0013309855 0.0006610674 -0.0033470166 -0.0069731004 -0.003976236 -0.010630638 -0.0005081382 0.006579997 -0.0023501792 0.0024908334 0.004425486 0.0059697935 0.006903057 0.010121862 -0.008388726 -0.009813273 -0.0048204185 -0.009058608 -0.0076706284 -0.0062410473 -0.0035355675 0.0030639071 -0.0020687082 -0.0091629345 0.0048250654 -0.0004700662 0.0050713713 0.0064865197 0.0072473963 -0.0024828254 0.006180249 -0.0052413186 0.0018593192 0.00488587 0.011250384 -0.0012782981 0.0037435042 -0.0044117677 -0.0017371043 0.008543589 -0.0037753265 0.0017635087 -0.007870892 -0.0083540585 0.007045422 -0.0047796792 0.0046717483
時 -0.00805044 -0.0012078298 -0.008259155 0.007665988 0.006639344 0.002753978 0.009007162 0.002608635 -0.010648348 0.008443053 -0.0060259956 0.005902876 0.0046682335 -0.0002604701 -0.0076175644 -0.0024435013 0.006239526 -0.008876542 0.00150054 -0.011397412 0.010227469 -0.00197092 0.010822973 -0.00640154 -0.010047553 -0.008818382 -0.0059177517 0.002979412 -0.0017654357 0.009731416 0.004975091 0.0036253093 0.00400607 0.007344941 -0.002537324 0.009238651 -0.009981966 0.0011598596 -0.001837551 -0.0025253226 0.0068325996 -0.0040174257 -0.0029505137 7.806844e-05 0.0011427081 -0.004553677 0.005648085 -0.0070791966 0.008707728 0.0013289378 0.0036794506 0.002358816 -0.001062638 0.0017312232 -0.0042796354 0.005380319 0.0012368046 -0.0038014324 -0.010628788 -0.009766385 0.0010785967 -0.00518365 -0.0016656959 -0.0047244625 -0.011513798 0.0024429432 0.0066186497 -0.0009042311 -0.009006943 0.005254365 -0.0018449756 -0.005244115 0.0006353492 -0.0013882115 -0.0013671588 -0.009198131 0.0073238225 0.0036030898 -0.0041981167 0.007863773 -0.0004959574 0.00682258 -0.0033250186 0.01024074 -6.136064e-05 -0.00610154 -0.0043230853 0.011126321 0.002473946 0.0019250237 0.010062779 -0.005912746 -0.0010225208 -0.0077516357 -0.0032509912 -0.0068902806 0.0051428895 0.0007616624 0.006443058 0.0022327574
ピザ 0.001479717 0.007872911 -0.0024414705 0.0033717928 0.009627776 -0.0032716068 0.007354776 -0.0025913452 0.0050631026 0.0039096437 0.004092974 -0.012820154 -0.0014885338 0.00455392 -0.00548906 -0.0080927685 0.006422297 -0.010044795 -0.0051964656 0.0035913317 -0.005437881 0.010560849 0.0022992028 0.0037654617 -0.0035839214 -0.0062279114 -0.011771989 -0.0031691405 -0.007608069 -0.0024797656 0.011145456 -0.007969558 -0.0052216575 -0.006149006 -0.006489165 -0.0064838636 -0.0015720206 0.007061121 0.0060102157 -0.009633106 -0.008526538 -0.0040428746 -0.010233553 -0.004526549 -0.004078028 0.0021037138 -0.008677713 0.00078768615 0.0035820347 0.007508725 -0.0002867658 -0.0109885605 0.0043698624 -0.006193964 0.0033096336 0.003301355 0.0099773705 0.0011936263 -0.0044261757 0.006985676 -0.005970636 -0.0074691125 0.003012811 -0.0032468506 -0.007977743 -0.0002575721 -0.009118992 0.0023723398 -0.003680061 -0.00028280378 0.00042877297 0.0051150164 0.008699708 -0.008974254 -0.002367028 -0.0077393334 -0.00944244 -0.003869541 -0.0032381106 -0.0075514787 -0.006539184 -0.002600774 0.0039267675 0.0055890093 0.008627972 -0.008085848 -0.0044239773 0.0013211305 0.01222798 0.0025467058 0.0039176494 0.0023119133 0.0032979136 -0.009117264 0.007921529 0.007968797 0.0072620576 0.001924746 -0.007000261 -0.0048772823
鶏 0.0075936806 0.00085132255 -0.009799274 0.004749134 -0.005547959 0.0043068435 0.0058893347 -0.0016736215 0.0012742355 0.00479203 -0.004583383 -0.003470315 0.008403042 0.010068669 -0.009251391 0.006785946 0.009893832 -0.0045564235 0.0026726935 -0.006169055 0.010035859 0.0005168043 0.0070392545 0.008688462 0.0039094924 -0.007478094 -0.0039028737 -0.0006038464 0.00054834125 0.0034440423 0.011483597 0.0044814255 0.010754282 -0.009819202 -0.0058855587 0.0036181882 0.003569233 -0.0025172976 -0.008349073 -0.0060540168 -0.008576885 0.008218968 0.0032700328 -0.0075165653 0.0047349515 0.0032913743 -0.006482404 -0.0064142277 0.0019677095 0.010256383 -0.008404725 -0.0009252758 -0.007565753 -0.00095821696 0.0017282777 -0.0042017363 -0.0020000131 0.0002798587 -0.0080309855 0.0077394997 0.0052392315 -0.00796249 -0.00288159 0.0025529477 -0.011034863 -0.0058150557 -0.007877075 -0.0040894453 0.0068513737 0.00927848 0.001311091 -0.008368053 0.0074020703 0.00405099 0.0020163732 -0.0080841845 -0.0023108847 0.00011022428 -0.009437703 0.0030063554 -0.00015609733 -0.0075741084 -0.010101646 0.008774907 -0.008456182 -0.0055248225 0.00601706 0.0011703016 -0.0010846785 -0.004351327 0.00038461405 0.005776503 -0.0056428276 -0.004930005 -0.0016047282 -0.0033399174 -0.006787759 -0.011918493 0.008528077 0.0074595595
定食 -0.005031226 -0.008125589 -0.0020970586 -0.003596464 0.0098921675 0.0003788305 -0.005575205 0.00014980632 -0.011557799 0.0012788819 -0.0051633753 -0.004772461 0.0044266223 0.008615608 0.004490164 -0.0079224985 0.0068750414 -0.011693218 -0.007027889 -0.011504361 -0.0007302026 0.0016788385 -0.0022328957 0.001336943 0.008918136 0.006381115 -0.0031410956 0.0071971975 -7.451305e-05 -0.0014117729 -0.0047010053 0.0062506436 -0.008101049 -0.002923505 0.007785285 -0.0006771232 0.0011764005 -0.009430851 0.0035091417 0.004299398 -0.009479829 -0.0046673384 0.007536468 0.0035213216 0.0013707597 -0.00076369947 -0.010917633 0.009676308 -0.0013145838 -0.0033707626 0.004086107 9.4172705e-05 -0.0067179315 0.0057142396 -0.003907485 -0.0053820563 0.0082896 0.006034943 0.007089351 0.0014487144 0.0012926186 -0.007057751 0.0036494005 0.008897981 -0.003886527 -0.00037846892 -0.003144319 0.0011833599 -0.009739171 0.0080154585 -0.0003662513 0.009610814 -0.004692841 -0.005809133 -0.004529566 -0.0065488312 0.002293994 0.0047477386 -0.00040439604 0.0040987167 -0.010433649 -0.0014345087 -0.009629684 0.0060707354 -0.0028194543 0.009158965 -0.0031514626 0.00836682 0.0065019256 0.0023989785 0.0016622696 0.008503528 0.002965149 0.008781077 0.007170613 0.0073197624 0.006396082 -0.010020872 -0.004911643 0.00055399945
事 -0.00034359266 0.0033341327 0.0009933313 0.00774068 -0.0038990113 -0.0015265199 0.0074701305 0.004932283 0.003221018 0.003862043 -0.0020641964 -0.0100593 0.002514536 -0.008191556 -0.002649463 -0.010244856 -0.0003805247 -0.009403888 0.007521616 -0.007464629 0.010921263 -0.0084015075 -0.0033717956 0.0015859574 -0.0034739103 0.0012622562 -0.0050786543 -0.0022822272 -0.0069180652 -0.009386813 0.007779078 0.00037418958 0.0072608646 -0.008352499 0.00360684 -0.008737026 0.0074410164 0.0045901667 -0.0071994616 0.00600914 -0.0056197774 -0.009605273 0.0010908712 0.0035740822 -0.00708904 -0.009926638 0.008649349 0.0013636613 0.0015979934 0.00349381 -0.0027416085 0.001002675 0.0014215035 0.009668754 -0.0064197425 0.0027990022 0.0069768946 -0.006994692 -0.010345334 0.008837323 0.007391871 -0.0035682525 0.005271832 0.000475343 -0.007355745 -0.0004214567 -0.004549752 0.0073813065 0.00053704355 -0.006658318 -0.0011563753 -0.0025115353 0.0078805145 -0.0017147966 0.009104456 0.0025746725 -0.004012394 0.008095378 0.0018157199 -0.0035736486 -0.0063330275 -0.0033999558 -0.0064365575 0.005495967 -0.009351977 -0.0058731847 0.0036211617 0.0013908538 0.007764953 -0.002846125 0.0011281645 0.0028392032 0.005755862 0.001991684 0.012503815 0.005129913 -0.00627642 -0.002917592 -0.007628447 -0.0056976443
長芋 -0.003180535 -0.008388923 0.009004673 0.0022327914 -0.00045852232 -0.008315683 -0.007789976 -0.0064203064 0.0074119405 -0.0030589984 0.0034322138 -0.006402023 0.009138341 0.004816899 0.0012200681 -0.004880394 0.0010407615 -0.004666551 0.007748959 0.0010504472 0.0025054042 0.0044434792 0.0052368348 -0.007301398 0.008810535 0.0014774418 -0.008180631 0.006782943 -0.0029510513 0.008671033 0.00043732906 0.0071678045 0.0038449755 -0.0053911153 -0.0037567723 0.011190078 0.001257935 -0.007745398 -0.0010219092 -0.0052085933 0.0011745464 -0.009012666 0.00680101 0.0015961956 0.009585415 0.0038295353 -0.0055207512 0.003448561 7.891965e-05 -0.008351134 0.009840056 0.008820299 0.008853308 -0.003925337 -0.009929002 0.0052233227 -0.0070298756 0.008347629 0.00076073484 0.005992628 0.0071389996 0.0011337347 -0.0028554494 0.00047218674 0.0071884305 -0.0057734414 -0.00067787495 -0.0009822845 0.0027180638 0.008797345 -0.0060551786 0.0039224126 -0.0028862068 0.0026658357 0.01023011 0.004561258 -0.005133632 -0.0029503494 0.006182856 0.010270943 0.0048653693 -0.0037954394 -0.0038723715 -0.0035264648 -0.0044785985 0.0035082398 -0.0060500214 -0.0049923495 0.010182219 0.010715637 0.009980347 0.0019048235 -0.008330727 -0.0073499754 0.0051641623 -0.008092517 -0.006089345 4.143808e-05 -0.0016308092 -0.009769444
好き 0.0057064816 -0.00752381 -0.007595406 -0.0017781191 0.0024383918 -0.0036907787 -0.004462521 0.010391909 0.007494549 -0.008174116 0.008735193 0.0052541657 -0.008597011 -0.0009558289 0.0042919223 0.006293244 -0.0037155598 -0.0088677 0.0050339126 -0.012731128 -0.004404059 -0.0003600855 0.00702402 -0.006444075 0.004539622 -0.0006088804 0.00062123116 0.004695053 -0.00019299217 0.0081163775 0.0018348345 -0.008337513 0.01011508 -0.005923946 0.0047379783 -0.0020709387 -0.0073534236 -0.00829397 0.0032010651 -0.0038569816 0.0013672651 -0.010277328 -0.005536363 -0.0057846913 0.009948248 -0.009785774 0.0040779896 -0.0011180469 0.0010447118 0.0103044 -0.0022567264 -0.007893609 0.0002518459 0.007817448 0.0078723375 -0.0029076093 0.003540156 0.004438623 -0.007409142 0.007146899 -0.005796445 0.00280083 0.003759268 0.003726267 -0.007641979 0.00409009 0.008013157 0.010313351 -0.01172526 0.007894769 0.0031160933 -0.0013790176 0.011058395 -0.004930735 0.00011550263 -0.006013013 -0.004348605 5.494745e-05 -0.0050254297 -0.0048473543 0.0056810966 -0.0057767294 -0.0082574785 0.010762131 0.009657607 0.0040620207 0.00030993216 0.002510285 0.0013418606 0.008110874 -0.0047257184 0.001071686 0.0048226938 -0.0018075719 0.004470086 0.0054230867 0.011005336 -0.00013773779 0.010734694 -0.0065370016
他 0.0040103924 -0.0024077042 -0.0045934236 0.0011486893 -0.0033486963 -0.007979165 0.0037118879 0.011765978 -0.007944481 -0.009724301 -0.0042043505 0.005605893 -0.010436957 0.01039016 -0.000302212 0.0014061171 -0.0018214205 -0.007509994 0.0032771144 0.0030174493 -0.0057975957 -0.00037421723 0.002871592 0.0036095185 0.0068896757 -0.0037702913 0.0055110753 -0.00731307 -0.0035801586 0.009670012 0.0073159165 -0.0086859325 -0.00073537056 -0.009852155 -0.0017894257 0.007331747 -0.0076051885 0.0038401724 0.005016624 -0.0065784813 -0.00983043 -0.0038177958 -0.0030262354 0.0040299883 0.010259334 0.0010524156 -0.0028568902 0.002715601 -0.0060900603 -5.1112434e-05 -0.00040901036 0.008732522 -0.0064551146 -0.007072473 0.0013144953 0.0032093255 -0.006452675 -0.0062208315 -0.002820591 -0.0029837817 -0.008312231 -0.0035701073 -0.003656285 0.00599166 -0.0018117884 0.0030343805 0.0009336591 -0.0020283542 0.0012343803 0.0028113169 0.004487158 -0.00036983046 -0.0072025876 0.00030116987 0.011657325 -0.004378282 -0.0055842553 -0.0026730793 0.007005767 -0.0004476901 0.008708425 -0.008764716 0.007326327 -0.007139808 0.009095853 0.001869811 0.003055111 -0.0044377632 0.010403342 0.0070284423 -0.004147974 -0.009044501 0.007453326 -0.0051865783 -0.0061873854 0.004203877 -0.0037177955 -0.009436396 0.0107069835 -0.0020699503
夜 -0.0023987896 -0.0027180298 -0.004426736 -0.004602652 -0.0050950754 -0.008183048 -0.007464589 0.013167368 0.0051549706 -0.004402133 0.0013504766 -0.009989446 0.006779441 0.0092516225 0.0007799325 -0.007868548 -0.0030451436 0.0030267073 -0.002686203 -0.00019300045 0.01074238 0.0051699416 -0.003702468 0.0048566326 -0.0033048622 -0.0065365895 0.005094766 -0.011108381 -0.0025239969 -0.0008817325 -0.006523788 -0.0012771192 0.006483115 -0.006280363 -0.0073210415 0.0081586875 -0.0036201854 -0.009818869 -0.00092214113 -0.0031679594 0.007684672 -0.0007476677 0.007461794 -0.009567275 0.0054952996 0.0053968574 0.00012477678 -0.003160503 0.0017893797 0.0003503093 -0.0070770853 -0.0076850913 0.0004979548 -0.0020701387 0.0081363665 -0.0004323599 0.0070306826 0.0015481368 0.0063093198 -0.00893159 0.0031780384 -0.00086984364 0.001521913 -0.00069208257 -0.009542483 0.010499487 -0.0022318605 0.003265904 -0.008408335 0.005613591 0.008448527 -0.0007990242 0.008348689 -0.000782705 0.009876647 0.010601775 -0.0006127668 -0.001868649 -0.011127428 0.0105288895 -0.0034664448 0.0019353653 -0.0034745939 0.011275036 0.008361996 0.001729896 0.0031740812 0.008175826 0.004464645 0.007661711 0.001657492 -0.0016689309 0.005835149 -0.0029979642 0.000767914 0.010526815 -0.008022486 -0.0054980665 -0.0021661716 0.0054367613
ボリューム 0.0072440184 -0.004963186 0.005565517 -0.00014308463 -0.00824753 -0.005257455 -0.0009552804 -0.0007061899 -0.0020661564 -0.0056747985 0.0045989044 0.007151131 -0.0028443027 0.0045361742 -0.0006905322 -0.0017383214 -0.0071002315 -0.0004746053 0.004237392 0.003176229 0.007944041 0.0046377336 0.006229903 -0.007976075 -0.0017466353 -0.005972641 0.0046709464 0.00596468 -0.005953428 0.0017396157 0.007288471 0.0015914746 0.0018062278 -0.007881149 0.009898235 -0.00512459 -0.0063176136 -0.0076871403 -0.0077949325 -0.0069248066 -0.009557512 -0.00020196797 -0.004250034 -0.0021582025 0.0076694703 0.0025697227 0.0006853761 -0.0019246049 0.010878757 0.0017744417 0.006383037 0.0082662795 -0.010606809 -0.008995747 0.008531236 0.0035558671 -0.0010015954 0.0043512643 -0.0064711827 -0.006247813 -0.007591868 0.008009745 -0.0032805533 -0.008115601 -0.0087637 0.0076130056 -0.001560419 -0.004439358 -0.0037977265 0.0010521495 -0.005180893 -0.001751125 0.005970133 0.0007337693 -0.0014192073 0.0036522504 0.0048084403 -0.0094360765 -0.0091554215 0.0068939826 -0.009999754 -1.5697284e-05 -0.011087609 0.011605947 -0.0043712812 -0.0066700126 -0.0009336792 0.0007284679 0.009887202 0.010403647 0.0014056531 0.0032479032 0.005098219 0.0004043607 -0.0019861723 0.0014065924 0.0036945166 0.006034965 -0.0026462707 -0.01066573
盛り 0.0046639442 0.011094022 -0.007372966 -0.0005386265 -0.004528697 0.0035970644 0.010454908 0.003354131 0.003518131 0.006038397 0.003337925 -0.010142155 0.002301577 -0.0002554135 -0.0020534422 0.0044125607 -0.0014991118 0.007821527 -0.00042358934 -0.0033723302 -0.0007996238 -0.0075455513 -0.008331426 0.004177337 -0.0067820265 0.002800585 0.00042779106 -0.009081127 -0.0048981425 -0.005269389 -0.0064701834 0.00013905464 0.010823083 -0.0075832643 -0.0043186853 0.0104467645 0.009013467 0.007981675 -0.011463866 0.0016085043 -0.007020431 0.005500303 0.0056680036 -0.0030046897 0.00873846 -0.008782682 0.003491311 0.00432409 0.006791637 0.0073928684 -0.0013435879 0.0030515094 -0.006937774 -0.0068143825 0.0012414663 -0.008780251 0.00043155532 0.00083506346 0.005918851 -0.0067817112 -0.0013479558 -0.0033089842 -0.0060260743 -0.0009950609 0.0015729399 -0.0034835155 -0.0008728597 0.0103807915 -0.0035381983 -0.0012911116 0.0054372703 0.0015857874 0.0014925995 0.008694583 0.010290655 0.0043144883 0.0028887556 -0.002256437 0.006461779 0.005791543 -0.0062904526 -0.0065384507 -0.0027208864 -0.004952862 0.0032381513 -0.009096297 -0.0011943548 0.0049924715 0.005341227 0.0042073904 -0.0071589514 0.0039884616 0.005904505 0.0038778426 0.011597205 0.0035486717 0.007835558 0.00651624 0.00018379911 -0.0015253028
雰囲気 0.0012341078 -0.0060298946 0.0052519166 -0.004971599 -0.0025975232 -0.004655552 0.009180755 0.006187466 -0.002269628 -0.0036534201 -0.0032120694 -0.0033762055 -0.0061175744 -0.0033116823 0.00036574723 0.0035177155 0.0016359668 0.0048806756 0.00084693235 -0.007004057 -0.0059548835 0.00683681 0.008481566 -0.006891033 0.004395344 0.009402683 -0.008474034 -0.0051761023 -0.010838196 0.0038097946 -0.0013961226 0.001977629 0.010462024 -0.009403771 -0.009377213 0.0037796253 -0.008478374 -0.011035385 -0.010743027 -0.0035997285 -0.0009609232 -0.0006095553 -0.0018830176 0.0093814405 0.010584268 -0.0074103787 0.00778404 -0.0095766485 -0.0005454266 0.004138577 0.0010395407 -0.0048106504 -0.00014136705 0.00094905985 -0.0108506745 -0.00421184 -0.00705024 0.0033922382 -0.0031613905 -0.007163705 0.0065309727 0.0008457915 0.0020391573 0.004809547 -0.0072465222 0.009387642 -0.0070697498 -0.0020665927 -0.009667228 0.0033185626 -0.009309181 0.00938592 0.0075875474 -0.008342794 0.008467068 0.007577998 -0.007886241 0.004263397 -0.00957288 0.010098411 0.0038691524 -0.00066010904 -0.011231438 0.0022061823 -0.00050658616 0.00087098085 0.009033445 -0.0012449898 -0.0065464703 -0.007651915 0.0005920404 0.0019465946 0.00077867426 -0.001910877 0.012468606 0.0020101506 0.007693238 0.0017439816 -0.00620666 -0.0026676995
日 -0.0087519735 -0.00551958 -0.0035314315 0.00655766 -0.00010553831 0.006119369 -0.0016817912 -0.0016808159 0.0025578062 0.0015488924 -0.0014912442 -0.004614448 -0.007239202 0.0049145254 -0.00757734 -0.009875966 -0.009435855 0.0066244607 0.0042442707 0.003677296 0.011256739 -0.006312434 0.0055335453 0.0023080397 0.0058694654 -0.0035078735 0.0071981233 -0.007760324 0.005436933 0.007380505 0.0017621326 0.0051693986 0.00758137 0.0005823473 0.0073681385 0.0044213575 -0.001811046 0.0056857956 0.0034640352 -0.0063612657 0.0015320708 -0.0014997437 0.0044042245 -0.005218248 -0.0026583988 -0.0019704844 0.0028358523 -0.0071321484 0.008756675 -0.0015955633 0.0071357647 0.0019529437 0.006300764 -0.004611623 -0.004583317 0.003902069 -0.0018449604 0.0057288827 -0.008094038 0.003101984 0.000105951345 0.00016491917 0.0017136947 -0.002844966 -0.007113296 -0.007273984 0.003234977 0.006867177 -0.007974214 0.0114031425 0.0022138706 -0.004977498 0.0005711836 0.0032884073 -0.0050329627 0.0030260473 0.005064653 0.006202469 0.0037558926 0.004388006 -0.003819926 -0.006592067 0.006256648 -0.004433012 -0.0019304946 -0.0030926187 0.0068729855 -0.004734992 0.0053650886 0.0030337581 -0.002242853 -0.0076865754 -0.0074613146 0.0037432313 -0.006015394 0.0075032907 -0.0017048789 -0.011392034 -0.004145807 0.0073474627
タン -0.0025753921 0.007839546 -0.009317858 -0.009399539 -0.0045521143 -0.0013556189 -0.0067446264 -0.006156289 -0.010065115 -0.0010122912 0.006202808 -0.01035252 -0.0061817733 0.0024862299 0.0033052007 -0.009489163 0.007811048 -0.010289528 0.0049825287 0.006380104 0.0067781075 0.0071300375 0.009428736 0.0031011503 -0.007961787 0.0054569333 -0.0102828555 -0.007389892 0.00437949 -0.00734925 -0.004188909 -0.003630194 0.004460917 0.004337811 0.00199032 0.006572994 -0.0029484602 0.0023823178 -0.008397973 -0.00431872 -0.00797361 -0.0010407512 0.0043018917 0.0053089624 -0.0031531372 0.000521412 0.0073391115 -0.0057790666 -0.0029952843 0.00053791655 -0.0037692909 0.008044646 0.0070594405 0.009100771 0.008535418 -0.008007244 0.00041827088 -0.008083156 -0.0068271942 -0.008596395 0.0042723804 0.0007560051 -0.0077587226 0.007790373 -0.0018343112 0.0014912717 -0.0033088948 -0.0018830486 -0.004379277 0.009805786 0.0011828218 -0.0053544473 0.006365019 0.0004915178 -0.0006754866 0.008650791 -0.0042837947 0.007458985 -0.005704641 -0.007103156 -0.005565413 -0.004194593 -0.002402632 0.0007551299 0.0050267796 0.005206303 -0.0012566095 0.00540116 0.00015190289 0.0016187393 0.0002092042 -0.002263453 -0.0043352535 -0.0039433823 0.0035307864 0.0035664095 -0.008503366 0.004304438 -0.00042533403 -0.003673804
利用 -0.0058182306 -0.0029187535 -0.0051261866 -0.009932494 -0.00017589185 -0.010646342 -0.0039821146 -0.0038347784 0.008525446 -0.0024418847 -0.009060805 0.0034446458 -0.00928352 -0.00094054337 0.002722061 -0.008240867 -0.0089770015 -0.008664626 0.007475131 0.005306517 0.0054366067 0.0032994228 0.005727905 -0.004817324 0.009535448 0.006870833 0.0019068819 0.00710363 -0.010220106 0.0014027415 0.011141882 -0.0010019513 -0.005675624 -0.0032747511 -0.002806824 -0.00042090056 -0.0021238106 0.0056132083 -0.0017177357 0.0010099 -0.0037730203 0.00691828 -0.007072444 -0.009190186 -0.002586554 -0.008561897 -0.005709057 -0.00014350575 0.003290356 0.003174315 0.006133077 -0.0022846083 0.001696269 0.00036754503 0.0067368476 0.008940011 -0.0009432263 0.0009215823 -0.00817892 -0.0044503505 -0.0061084805 0.0007727901 -0.0055759624 -0.0046766647 -0.0015420271 0.0040559326 -0.008454608 0.0032164198 0.0029449156 0.0065445458 -0.004904893 0.009817216 0.011597129 -0.0007630381 0.0028140163 -0.00839103 -0.005343054 -0.0001959572 0.0024513276 0.0008724518 -0.00966399 0.005544597 -0.009388251 0.011734185 0.005622899 -0.006653882 0.0033383342 0.009399459 -0.003965018 -0.005532941 0.011154153 0.0023364336 0.010355332 -0.009557383 0.0022083246 0.008842167 -4.0255505e-05 -0.0038945081 -0.00616074 -0.0062828027
チーズ -0.0072788983 0.010465016 -0.0018836233 -0.008481883 0.009131712 -0.0060602147 -0.00047813696 0.0032545489 0.0013248484 -0.005324438 -0.0013520652 -0.005223172 0.0077922884 0.008003979 0.001325237 -0.0071600243 0.003125963 -0.001297895 -0.0058145933 -0.00997452 -0.001599733 0.0037613884 -0.006336041 -0.0058208504 0.008010359 -0.0040685344 0.005717925 -0.0018770214 -0.0076260013 -0.004376436 0.0026683894 0.004798295 -0.0051455726 -0.006594956 -0.0069785 0.008756119 -0.0027667754 0.0019191348 -0.0034034215 -0.0114504965 -0.0012306611 -0.0010977086 0.0030884296 -0.008373036 -0.0050875926 -0.007646734 0.0019947176 -0.0040609795 0.0017316467 0.0057512852 0.0060188607 0.0013274411 -0.0038014087 0.0006978161 -0.006988394 -0.0055848276 0.009782389 -0.0044801803 -0.011863483 0.0040503903 0.00962371 0.00063461385 0.0014063822 -0.0041316445 -0.00768046 -0.007109746 -0.0069523896 -0.007210571 -0.008557203 0.011351898 0.0073116636 -0.0014682066 0.0020471658 0.007071338 0.0036427632 -0.0043483474 0.0021297478 0.0016565558 -0.0058420748 -0.004298548 0.008516444 0.00722255 -0.010817621 -0.002062233 0.0013611263 0.0011601371 -0.008131583 0.01126636 -0.0028428675 0.0059116394 0.011390996 0.0018270054 0.004635793 -0.0022196788 -0.00554373 0.002760726 0.00057242555 -0.012537109 0.0081713665 -0.0081104
値段 0.0041500637 -0.0030088073 -0.009530185 -0.009082221 0.0071270047 -0.00787688 0.006138629 0.0023478991 0.008449639 0.0065470096 0.008551244 0.0064242235 -0.008931464 -0.008757067 -0.0054273973 -0.0016433505 0.004910342 0.0018149231 -0.0017960129 0.0011961124 -0.0019540554 -0.0058343494 0.006249189 -0.010554852 0.00062029605 -0.005306823 0.0054871086 -0.0057832454 0.0010878494 -0.0057453 0.011792926 -0.0055860034 0.0045357463 0.0021988233 0.008850469 -0.0034726101 -0.0046307966 -0.008145535 0.0047591776 -0.007980622 0.004944577 -0.0023403158 0.006757124 -0.0056765075 0.0017503033 -0.0008435473 -0.009612732 0.008291255 -0.0013987804 0.007896711 0.001386386 0.0040886174 0.0015442075 0.009000261 -0.009846358 0.009088508 0.009424961 0.00068089936 0.0022171983 0.0041441605 0.004933349 -0.002207706 0.002152431 0.00027545815 0.00192141 0.0099727325 -0.0069018677 0.0016044964 -0.010892067 0.00064955547 -0.011057846 0.003525693 0.0002668361 -0.001456246 0.008554656 -0.0072432566 0.00070692034 -0.0027843113 -0.005518051 -0.006762056 -0.008973007 0.007941517 -0.009588335 0.007966406 -0.0039649033 -0.0011759482 0.003308019 -0.006952276 -0.0034835648 -0.0066219703 -0.00774047 -0.004180099 -0.0027270128 0.0008807022 0.0030194193 -0.005912438 -0.0025457062 -0.005068509 -0.005306676 -0.006941427
コスパ -0.003519118 -0.00630853 -0.00855125 -0.007895213 0.004462446 -0.010522111 -0.003064383 0.010604204 0.0057583735 -0.0071632867 0.005497589 -0.009983846 -0.0009825056 0.00761569 -0.0027992884 0.008220131 -0.000526913 0.0028021585 0.0071507636 -0.012340758 -0.0045992485 -0.00623751 0.0005057863 -0.0076533114 -0.00024043892 -0.008392502 -0.0016820311 -0.0024516874 0.0045928922 -0.00838542 -0.0008481855 0.0058768257 0.010253523 -0.0028910378 0.00072187005 -0.004001428 0.0006354159 -0.010203564 -0.009043952 -0.0020282143 1.0284027e-05 0.0039640944 -0.010223885 0.0020611803 0.0031266576 -0.0059951893 -0.0010448782 0.005675167 -0.005850834 0.0016601128 0.005232995 0.0006993797 0.0022813217 0.008206497 0.0052887513 0.004389967 0.008860709 -0.008006591 0.005283419 0.0043153586 -0.0049951514 -0.0034487853 0.005666888 0.0053737555 -0.012882225 0.0028417483 0.0004937359 0.0023580599 0.004910011 -0.0046707294 0.0076601673 -0.009202111 0.00825339 0.008859329 -0.0015929237 -0.008333966 0.005901448 -0.009323303 -0.009949687 -0.00024284922 -0.007747089 0.008237842 0.005942889 0.0038585616 0.008129911 0.010147883 0.0055628736 0.0061320793 0.007956155 0.007597725 0.0065797865 0.0071086376 -0.0069868374 0.009360298 0.011846542 0.011581631 -0.007552295 -0.0057488345 0.00068998337 0.0037090455
生ビール -0.0090237865 0.0017400042 0.005771242 0.009731037 -0.002095235 -0.000784006 0.0067994813 0.0014774794 0.0006845346 -0.010019413 -0.00045929357 0.0026186204 0.0034708427 -0.008983951 -0.005240855 0.002001432 0.0015851682 -0.0064661 0.0059006093 0.00015581415 -0.0065926267 0.010948528 -0.0065162354 -0.0034414555 0.0094508035 0.00087192847 -0.0075369384 -0.00058943534 -0.0056298776 -0.0062336135 -0.00582821 0.0047283336 -0.008301102 0.0031267952 -0.0056413966 0.0072751488 -0.0046981713 -0.0073755127 0.0052731233 -0.011656317 0.0014153611 -0.0034019623 -0.007334941 -0.0074178115 0.008223095 -0.0053116805 0.0036602179 -0.010207834 0.0027061638 -0.00060787046 -0.0048574484 -0.003711035 -0.009274533 -0.0035559302 -0.0040005012 -0.0013658468 -0.0043583545 -0.009533952 0.0037688527 -0.0009061575 0.007147866 0.00369501 0.0078815995 -0.004037852 -0.011573513 0.0026653637 -0.008213743 0.0074061216 0.006591048 0.0026307602 0.0061279433 0.008808099 0.0057612783 0.0046528997 0.011122452 0.0021314872 -0.008610998 -0.008412956 -0.0033822828 -3.3801945e-05 0.008096343 -0.009890647 -0.004535189 0.012006671 -0.0016090111 -0.009122814 0.0021840844 -0.0043059653 -0.0035032323 -0.005359406 0.0017412987 0.007895977 0.0044526123 0.008367292 0.012059114 0.0061065466 -0.0048615825 0.005215541 -0.00873753 -0.0051415768
税抜 0.007252356 0.009154161 -0.006139603 -0.0075825783 0.008789592 -0.006535862 -0.0036558183 0.010492408 0.0038136626 0.0038478593 -0.002560301 0.0073357704 0.0074745775 0.008355869 0.009466609 -0.006994716 0.0006509428 -0.003901968 0.00699772 0.0065352432 0.006597282 0.0050670877 0.008141551 0.005457588 0.00023753662 -0.008628779 -0.004816981 0.0071801553 -0.006731107 0.0020309733 0.0066574374 -0.007123935 0.009429191 0.00016256554 0.002825849 0.010670064 0.0012278365 -0.00061130896 -0.010753921 0.006556599 -0.01077784 0.007269956 0.0045651947 0.0003533206 -0.0061319848 0.0088148 -0.002757843 0.005542506 -0.002396001 -0.003550381 0.0018275386 -0.008417781 -0.007459042 -0.009716767 0.00402019 0.001297202 -0.0007081009 0.00523988 -0.0037137477 -0.0068853037 0.004355126 -0.005132951 -0.00048687158 0.009019112 -0.0036206911 0.0075338427 0.0058474983 -0.002009309 -0.0077257543 0.011189845 1.1131275e-05 3.0291973e-05 0.002254098 -0.00561382 0.005747276 -0.0020923615 0.0037374774 -0.004569027 -0.0025216264 0.0045649055 -0.008153684 -0.002921334 -0.01096287 0.004161567 0.0018115425 0.0024653291 0.0015312843 0.001878595 0.004226225 0.00025205102 0.00801956 -0.0025771928 -0.0052899383 -0.0056104213 -0.0064239306 -0.0066879485 0.0036914896 0.0018870941 -0.004764782 -0.010697504
豆腐 -0.006926381 0.0060997386 -0.009338973 0.0053585568 0.0069737164 0.003931831 -0.007107169 0.0059232474 -0.0068962974 0.00851613 -0.005305473 -0.0042904806 0.004540702 8.85131e-05 0.0052394173 -0.004880223 0.00469155 -0.011429484 0.0062953224 -0.0044621034 -0.0043666298 0.0007690687 3.0480305e-05 -0.0012461073 -0.002281634 -0.009555434 -0.009362402 -0.008530727 -0.0100477645 -0.0042467294 0.011023172 -0.0018065916 -0.0066614365 -0.006653169 0.0034841623 -0.0012536407 -0.0016878493 -0.0059527257 0.0048318235 -0.010592931 -0.007562852 0.0066491924 -0.0075271125 0.0025314835 0.002053991 0.008840154 0.0036492986 0.0015607964 0.0033760658 0.0036247778 0.0032993148 -0.0034472272 0.0035435448 0.006056192 0.007913997 -0.00037593883 -0.0005240066 0.006002877 -0.010426455 -0.0003573977 -0.005831287 0.005255067 -0.009533349 0.0029076787 0.00655732 -0.00085220975 -0.008507807 -0.006865679 0.0014625214 -0.0033803717 0.0051453314 -0.000756009 0.009411983 -0.0011228558 -0.0044991765 -0.0049772374 0.0006022208 -0.0049867206 0.005181684 -0.002894712 -0.006391224 0.00060458574 -0.0064492626 -0.005746602 -0.0054360256 -0.0019951398 0.0008649653 0.005075742 0.008685777 0.007695505 0.0074127303 0.00068366656 -0.0053328974 0.009573554 0.0026499298 0.0062753893 -0.00027428812 0.0040816367 0.006375497 -0.0078071505
来店 -0.0036514117 0.0015698536 0.0019183543 -0.00926222 0.0053153825 0.0010461542 0.0005114984 -9.872581e-05 -0.008982392 0.0070820614 -0.009752171 -0.009455748 0.0039904853 -0.007993496 -0.0032542914 -0.0030401258 -0.0019899674 -0.008649677 0.004417666 -0.0022449095 0.0051327725 -0.0004608801 0.008507332 -0.010343288 0.0056767506 -0.0053553786 -8.730035e-05 -0.008894962 -0.004061078 -0.00589189 -0.0018681356 0.009897088 0.0035694751 0.0006428343 -0.006239504 0.007320549 -0.008559725 -0.0041673975 -0.007614951 -0.009531128 0.0024480459 -0.0044875476 0.0018765461 0.004473696 -0.004789786 -0.0026440169 -0.003537058 -0.010248461 -0.009215003 0.002376958 0.005472251 -0.0006331344 -0.0056266645 0.003389576 0.00058558607 -0.008961992 0.008122915 0.007492729 -0.009699797 -0.0002332815 0.006864189 -0.0022280815 -0.0010271044 -0.0048234845 0.0032809502 0.008444498 0.0029261915 -0.0034368963 -0.0036053085 -0.0021057108 -0.011430273 0.007911811 0.0010452641 -0.0014062894 0.008852963 -0.008058328 0.006256468 -0.007960069 -0.006897221 0.0057082814 -0.004532185 -0.0036626933 -0.008170728 -0.0012948216 -0.002663837 -0.004285751 0.009996798 0.010964451 0.0018309179 0.0008329294 -0.0041219434 0.008369387 -0.004511843 0.006428059 0.012620425 0.0074096187 0.00018512497 0.0037346918 0.00782053 -0.004416981
野菜 9.620337e-05 0.007827936 0.0055598826 5.452281e-05 0.0031403739 -0.009096365 -0.0087908665 -0.0014452519 -0.006754236 1.34074435e-05 -0.005007489 -0.0024508126 0.0069142245 0.010878383 0.007882122 0.0016213467 -0.0029863555 0.0006952347 -0.0025073888 -0.012325428 0.008124362 -0.007882534 0.0052418523 -0.0045186137 -0.005971572 -0.0014758346 -0.008523093 0.00680319 -0.00848141 -0.008607525 0.007938152 0.004450574 0.005840474 0.001531714 -0.0037703372 -0.0033552218 0.0017475496 0.0067337295 -0.0068800705 -0.0053730705 0.0016404688 0.005725174 -0.006921948 -0.004221419 -0.0010774604 0.0005379727 0.0045497115 0.005231195 -0.007989998 0.008742128 -0.0012191113 -0.003576203 -0.009722485 -0.006000151 0.008347205 0.0037309546 -0.0074407365 0.0023184794 -0.008837704 -0.008939812 0.004760853 0.0026817375 0.0006063632 0.00853728 0.003572415 -0.0036783912 0.0034434833 0.0039618015 0.00042676515 0.0104479 -0.008747803 -0.0020474584 0.0025599045 0.005890146 0.0013027018 0.008751004 -0.0051380545 -0.009082564 -0.008580408 -0.0033334629 0.009021704 -0.005513495 -0.0067407214 0.011002833 -0.0076239295 0.0021715895 0.0062810974 -0.006058993 0.001813732 -0.0011114319 0.0072316346 -0.0042998395 -0.0060574613 0.010413584 -0.0010099126 0.009275593 -0.0072264518 0.005156252 -0.002429733 -0.008502189
セット -0.0016360646 -0.0010068242 -0.0019766132 -0.0009440061 -0.006208122 -0.005788696 -0.002662255 0.010705705 0.004914053 -0.0012810929 -0.00575643 0.0035812333 -0.009704086 0.0024975364 0.0040388373 -0.0028675485 -0.004508931 -0.010180095 -0.0082967365 0.004226226 0.004857132 0.0006349154 0.010932329 -0.009129805 0.0001889436 -0.00085925456 -0.009849559 -0.010791499 0.005744392 -0.0031439823 -0.0062133144 0.007825052 -0.0055873394 -0.0036692703 0.0018836837 -0.0017472045 -0.008212797 -0.0054851463 -0.01023948 -0.0013376824 -0.004750151 -0.0011485372 0.002414209 -0.0018492369 0.010364471 0.0061176424 -0.0012886667 -0.0010455009 0.0014941845 0.00804309 0.010013552 -0.0027071843 -0.0022554896 -0.003169223 -0.00056656334 -0.005824722 -0.00096244697 -0.008986593 -0.0008098404 0.0018438598 0.0043370165 -0.0021089658 0.005353251 -0.0076508457 0.0072439583 0.0017227246 0.0029000735 0.0057241586 -0.0012000276 0.004390012 0.00020801587 -0.009539404 -0.0016759426 -0.0031265472 -0.007639959 0.0041476483 0.0046267314 -0.00226441 0.006182609 -0.00065175747 -0.0011052653 0.005607252 -0.009974158 -0.004280591 0.0074955267 -0.0064500193 0.008790743 0.006948094 -0.0060370625 0.009426408 0.007897171 -0.006389248 -0.0082398625 -0.00864458 0.0071905004 0.007929022 -0.00087107596 -0.00044639324 -0.007766734 -0.0057989843
人 0.0041545285 -0.0077077914 -0.009381678 0.0010210319 -0.008116299 -0.00888457 0.005150956 0.010938124 -0.008632936 0.0074924976 0.008541204 0.0028925969 -0.0049509043 0.010239523 -0.0076903678 -0.004795645 0.0019914836 -0.00917307 -0.009721461 -0.000100582125 0.009263827 -0.0042090053 -0.0032145844 0.003459778 0.00030356736 -0.00889431 0.0051125376 -0.004667138 0.002455072 0.0034714418 0.010375114 0.008534634 0.008119443 -0.009181875 0.0009692671 0.00030441972 0.0005664742 0.0073449886 0.003828456 -0.011543694 0.009941997 -0.0019327708 -3.709201e-05 0.005271199 -0.004980039 -0.0013388488 0.00063114945 0.0065954393 0.005042084 -0.00087203766 -0.007612898 -0.004593814 0.008152826 -0.00956546 0.009001949 0.00047598348 -0.00030168827 0.009331139 0.008210801 0.0087771425 0.009611482 -0.009627558 0.0070708226 -0.009703336 -0.010204683 -0.0076635005 0.002662642 0.008338975 -0.0077725677 -0.0009755051 -0.0034131047 -0.0041563665 0.00013350273 0.004303883 0.0053324997 -0.0025877634 -0.0038944846 -0.0027306087 -0.0044370727 0.0045600436 0.009139045 0.007753891 -0.009100387 -0.004200459 -0.00924948 -0.0059829666 0.003962198 -0.004769692 0.0034834596 0.009802265 0.004533366 0.001601378 0.009354723 0.006697291 0.0013730358 -0.0048681097 0.00013368206 0.0056838226 0.008108511 -0.004357728
菊松 0.009521907 0.0034182947 0.004954549 -0.0053737764 0.004685091 -0.0014944377 -0.009467173 0.007842542 -0.010547701 -0.007092368 0.001932474 0.007527209 -0.002630527 0.0077092373 0.0051392675 0.0031936239 -0.0060437513 0.003470379 -0.008285863 -0.0071198815 0.006884923 -0.0073506343 0.0071832035 -0.004016077 -0.000102091486 -0.007917602 -0.007883394 -0.004698146 0.0074614272 0.005732857 -0.008547715 -0.006975612 0.004450057 -0.00938198 0.006567096 0.007986974 -0.009680454 0.007237156 0.0067905313 -0.0043750894 0.0018906351 -0.0066270744 0.0059706373 0.00846121 0.0051662815 -0.009983808 0.0041133724 -0.0033868498 -0.0017137456 0.0071689263 0.0030293032 0.003808628 -0.0072472556 0.005110943 -0.0046129012 0.00014706946 0.0072677825 0.003771596 0.006414344 -0.0033481638 0.004076924 0.007910921 -0.0038860668 0.005411795 -0.011839613 0.010167388 0.0043490664 0.0065418 0.0032203684 0.006283996 -0.0048331083 -0.006122285 -0.0009382425 0.0008330878 -0.0017109679 -0.007953886 -0.0066465116 0.007997272 0.008344281 0.006469063 -0.0047782194 0.0005580394 -0.0101557365 0.008903249 0.00015021041 0.007273779 -0.0051107584 -0.0015831875 0.004700605 0.004401657 -0.005324402 -0.0071119894 0.0022184325 -0.009054413 0.008794337 0.006628716 -0.0025566216 -0.007431699 -0.00767284 -0.0025253827
食堂 0.006644962 0.0007765947 -0.008202735 0.009233219 -0.008324244 0.0038454977 0.0066939075 0.003763685 -0.010069576 0.0057261153 -0.008771314 -0.006914527 0.009336975 -0.007715993 -0.0076629776 -0.0057696155 0.003725221 0.00023990113 -0.005470978 -0.0060329977 0.010087935 0.010819144 0.011422158 0.0005811086 0.003988142 0.00088098925 0.0002324667 0.0036120499 0.0010688279 0.0007664421 -0.002088044 -0.0069218036 0.009093801 -0.0068931524 0.0025995215 0.00067381014 -0.0038962285 -0.0064951573 0.0022149817 -0.008566344 -0.0074489685 -0.0035269042 0.0043906635 0.006760317 -0.00031635055 0.006310527 -0.0085841445 -0.0050524496 -0.007383486 -0.005051782 0.008468998 -0.010289169 -0.009676882 -0.01004163 0.0084079355 -0.0021297429 0.0019795026 -0.00660872 -0.0036344938 0.00066054636 -0.0019903893 -0.006893309 -0.006793176 0.0022451608 -0.01195525 0.0023705186 -0.0013861604 0.009519561 -0.0018706069 0.007965887 -0.008459572 -0.0073849126 0.0069675534 0.0003836154 -0.003716088 -0.002084573 0.008515551 -0.009710536 -0.004848501 0.0013366105 -0.00080472254 0.009382303 -0.0034926175 -0.005157035 -0.008027573 -0.010195828 -0.0075833253 -0.004849431 -0.0041010156 -0.0004936829 0.0006528173 -0.0043600174 0.0023544293 0.0039766678 0.012055938 -0.003571862 0.0065112035 0.0056209876 -0.003009617 -0.0081364745
天ぷら -0.004099008 -0.00562194 0.006162295 0.009447621 0.008933196 -0.011183954 0.0056925085 0.008870132 0.004523817 -0.009097209 -0.0013460666 -0.008746958 -0.0098208105 0.0035526312 0.009825364 0.005817304 -0.0072184117 0.0004996539 -0.003815556 0.006636968 -0.0075026527 0.010619879 -0.0050916635 -0.0075942837 0.0011830485 -0.0010368916 -0.01054756 -0.0025126096 -0.0018759347 -0.0059958696 0.007814198 0.0032148995 0.009596315 0.006410452 -0.0066348542 0.006623031 0.0055554095 0.0039097234 0.003988289 -0.007896918 0.0040102233 8.890402e-05 -0.00032769953 -0.0061952076 0.003179025 0.0044077123 -0.0102097485 0.008191052 0.0038657384 0.0014532189 -0.0022391286 -0.00039712174 0.0055170953 0.004745565 -0.0071298536 0.008573016 4.1850893e-05 -0.008727706 0.0068756323 0.0055780625 0.0044306777 0.008725031 -0.0083758505 -0.00640546 -0.0047056144 -0.0027725631 -0.0011185055 0.0010475836 -0.01046396 0.0043630856 0.00088129716 -0.0007225003 0.0066304784 0.0009024894 0.007981014 -0.0015742086 0.0082532205 -0.0016798013 0.0015717611 -0.0030578203 0.005581022 0.002737687 -0.0015147812 0.01168491 -0.007875056 0.009984343 0.0011366924 -0.00077417394 -0.0020221411 -0.0080702575 -0.0006174439 0.0030876505 0.007179684 0.009647779 -0.005341022 0.011157019 -0.007813679 0.0016397416 0.008976743 -0.0029937704
前 -0.008604656 -0.0071046096 0.0008975827 -0.0007359845 -0.008971811 0.0009332527 0.0030258799 0.0075066406 0.0032129642 0.0027291772 -0.010822785 0.0039032884 0.003704898 -0.0071427706 -0.0021401916 -0.0006522352 -0.00072902744 -0.0028635946 -0.005486984 -0.0030578158 0.005681163 0.00017185678 0.0020911137 0.0015181168 -0.004307041 -0.008283967 0.007521244 -0.011684646 -0.0040087914 -0.00071233977 -0.0060735573 0.0018193987 0.008819056 -0.002290214 0.008013409 0.0020098363 -0.0062130624 -0.0035154063 -0.0018950476 0.0034157168 0.007264749 0.00504553 -0.006413181 -0.0065912004 0.0075751184 0.0016492541 0.0046438393 5.2744053e-05 0.008498904 -0.0075344834 0.01108631 -0.009002262 -0.0024607724 0.0060575423 -0.010425652 0.0048884926 -0.006086155 -0.0072337035 0.00048404792 0.0019325814 -0.0020165802 0.008429155 -0.007659445 7.2062016e-05 0.0060487967 0.0032785018 -0.006112888 0.0049148174 -0.00687111 0.00256987 0.0013314562 0.007861338 0.008966826 -0.0056089126 0.011191785 -0.004914578 0.007415591 -0.008147386 -0.0093255285 -0.00045665185 -0.008995624 -0.0036843992 -0.0022835955 0.002545342 -0.009996125 -0.0065380395 -0.007111231 0.00099416 0.007038448 0.00083687744 0.011497998 -0.0037292931 0.0086652385 0.0065556443 0.011610846 0.0016354893 0.0007553297 -2.8582048e-05 -0.0091651045 0.008516879
揚げ -0.0032477519 0.008906803 0.0017242429 0.0027938692 -0.00077637687 -0.012018902 0.0019416767 0.005828777 -0.011104348 -0.0043078926 -0.0033132294 -0.006992414 0.0032826618 0.0028950977 0.0043516597 -0.0073752254 -0.0061556506 0.0034274433 0.0072034393 0.0028424487 0.0060743643 -0.0066764676 0.009581393 -0.007358694 -0.008074556 0.008402215 -0.004311219 -0.0110051 -0.00445728 0.0063570514 -0.001253931 0.005507547 0.0007511041 0.003109544 0.0012342031 -0.008053651 -0.0038509404 0.0077354535 0.00039697505 -0.00853158 0.0069127767 0.006687772 0.0070456685 0.00055004016 -0.0078163585 -0.0042372574 0.0042862655 -0.007080151 0.010562253 -0.008585199 -0.006964309 -0.006086776 0.0054043178 -0.007940436 0.0075965836 -0.009256154 0.004249437 0.0033417866 -0.0013860806 0.010055412 0.006038908 0.00091720367 0.0043140394 0.0061190627 0.0007459216 0.0106986305 -0.0007138038 -0.0074690473 -0.006317829 0.0004563027 -0.008896303 -0.0011947195 0.009388365 -0.0058092317 0.0069796876 0.0051423497 -0.0009387233 0.0008787748 0.0043512047 -0.006149596 0.003279639 0.008506324 -0.0052041374 -0.0054314407 -0.009458228 -0.008988782 0.0041731535 0.0066343006 0.008926103 -0.00048597538 0.0022498136 0.003369626 -0.009632704 -0.0095515065 0.007608734 -0.007263511 -0.002228366 -0.0058635054 0.006893418 -0.0041866996
提供 0.009201882 0.0020352118 -0.0054235286 -0.0036586728 0.0020530466 -0.008173077 0.008145951 0.012721123 0.0027979608 -0.0079159755 -0.0070577865 -0.0022775831 -0.0018984952 -0.0047046314 0.00810152 0.0055237818 -0.0043198112 0.0007431239 0.005346897 -0.0010779063 0.010032691 -0.0004666881 -0.0049134633 -0.0016238487 -0.008866589 0.009771171 -0.010534661 -0.003507452 -0.0043282746 0.0036975543 0.0071011987 -0.008298026 -0.0036515328 -0.0005066466 0.00404615 0.0070229988 -0.0015053492 -0.0024007838 -0.009111771 0.0014614109 -0.0078055337 0.0019143783 -0.0038480116 -0.007597574 0.008469184 -0.0012413961 -0.010391427 -0.009741641 0.0014305316 -0.0067958767 0.004910821 0.002514246 0.0027280957 -0.0057050292 0.006729105 -0.008402231 0.008338118 -0.0010071936 -0.0034425182 0.0041939146 -0.0016141187 -0.0038280028 -0.0031078602 -0.006651847 -0.003169001 -0.0038614543 0.0052172234 -0.00820116 -0.0064896867 -0.0069953958 -0.011573993 -0.00047525062 -0.0063195457 -0.006504428 0.0048028007 -0.00043226162 0.002650511 0.008237493 -0.011151398 0.0067665586 -0.008714311 0.006108517 0.005519963 0.011395552 -0.008038292 0.0034267497 -0.0074187103 0.00016593351 -0.003110823 -0.0074301176 0.00646953 0.0049657216 -0.0034583022 -0.007330491 0.0072230967 -0.0022272367 -0.0076089883 -0.0066003944 -0.0010186323 0.008208998
安心 -0.007259418 0.0086274985 0.005965939 -0.004911434 -0.0011914925 -0.0049603963 0.0037250419 0.0028458184 -0.0040001157 -0.0097643025 0.00540184 -0.011625375 -0.009450532 0.0020770805 0.0030254936 -0.0010105335 0.00026165467 0.00091625156 0.00210458 0.004506263 -0.002202535 -0.0064810803 -0.006633713 0.0074188863 0.001630538 -0.0059893094 0.0046137404 0.0066177025 0.00648942 -0.006456309 -0.0032255782 -0.0019984897 -0.0057614655 0.003830825 0.005542897 -0.004284882 0.0071073426 -0.009283316 0.0050415113 -0.007453789 0.0020180093 -0.004410938 0.0029547894 0.008037218 -6.369446e-05 -0.0058177663 -0.009492136 0.003281246 0.0050634188 0.007763981 -0.003263478 -0.01066822 0.006279188 -0.0046508806 0.0032799144 0.008799184 -0.0031924373 0.0013262725 -0.0053878273 -0.0062214495 -0.004882979 0.0004890715 -0.008031398 -0.0023110164 -0.0050643566 0.007985669 0.0019162877 0.00708261 0.0018436057 -0.0014702666 -0.006660236 0.010061052 0.00866854 -0.009794013 0.0071669836 0.008993367 0.009132138 -0.008337277 -0.0035304995 0.0016032058 0.0021773358 -0.0018959213 -0.00650011 0.009060282 0.0069531486 -0.00038035834 -0.005544032 -0.0026900938 -0.0030810395 0.0052041183 0.0019908152 -0.0017924064 -0.008806504 -0.0012920554 0.009481357 0.008011298 0.005455385 -0.0049055503 0.009966061 0.00026316603
店員 0.00037945685 0.0075957137 -0.0069113146 0.006410384 0.010377847 0.0009126813 0.0042579817 0.007980002 -0.0033745551 -0.008800892 0.00031040653 -0.0012719146 -0.0079277605 0.0028766824 0.005512934 -0.008158726 0.0024375576 0.005992052 -0.008445973 -7.605978e-05 -0.0070736418 -0.0071149166 0.00868122 -0.008202522 -0.0017224267 -0.007981817 -0.010029782 -0.009035678 -0.0011564132 0.0023091207 -0.0059655965 -0.008013905 -0.002127991 -0.0028825037 -0.006135593 -0.0022416997 0.0033763829 0.0012127347 0.0051713763 0.00114414 -0.0009450662 0.001354216 0.008641287 0.0021210532 0.0034064096 0.00017785029 -0.010266526 0.005043959 0.0058568856 0.0013836415 0.010543636 -0.006584565 0.0026965588 -0.007841457 -0.010278209 0.0027481597 0.0055716615 0.005726993 -0.010726489 0.004740816 0.0031642711 0.004801124 -0.0014406183 0.0051107514 0.0045031323 -0.0068174526 -0.009234829 0.00865014 -0.0030550908 -0.0070900796 -0.0060499087 0.0015362639 0.010372427 -0.0023715326 0.0009495414 -0.006390226 -0.008153526 0.0013020827 -0.002125215 -0.0070142457 4.016165e-05 -0.009392673 -0.0044020475 0.007140745 0.0011215816 0.007917017 0.007128571 0.00036766703 0.0071574226 0.0072542913 0.010397353 0.009557471 0.0055408394 0.00503679 0.010827553 0.00022653876 -0.004304028 0.006728965 0.0022888435 -0.005588183
今回 -0.0018087897 -0.0037491575 0.008910287 0.0035004485 0.004989913 0.0036390305 0.008906743 -0.0011630921 -0.0076742615 -0.004446882 -0.0048711463 -0.011597762 -0.0016044006 -0.0071808053 0.009820577 -0.0044199578 -0.006511916 -0.010042401 -0.0035003275 -0.013135841 0.0021668307 0.006374976 -0.0015477447 0.007099171 -0.0022675977 -0.0075309705 -0.0051500453 -0.0050478517 -0.008706669 -0.009241521 -0.001988479 -0.0016115714 0.005972078 -0.008610388 -0.005191776 0.0031798433 -0.00198355 0.0016954003 -0.0031520058 0.0010871191 0.008162133 -0.00929333 0.0032643583 0.0061932695 0.0010360351 0.0057397606 -0.006431307 -0.0052041262 -0.0070240945 0.010946167 -0.00826056 -0.004047433 -0.0010731601 -0.0049597556 0.008135082 -0.006088645 -0.0071036955 0.008871723 -0.010460966 0.010165763 -0.003364278 0.0063558877 -0.0010528781 -0.0044411705 -0.010508529 -0.0049272967 0.007569788 0.007758312 -0.001720036 0.008671428 0.0022909667 0.0040436983 0.00436998 -0.010452897 0.011485234 -0.007260192 -0.0032887359 0.0013420141 0.0036767828 -0.008589921 0.00081922836 0.005989057 -0.01052941 0.012581878 -0.005375443 0.009747474 -0.006200428 0.008152161 0.011638978 -0.008113696 0.0019672522 -0.007243343 0.008590659 0.009971451 -0.0026564796 0.0027279009 -0.0009967558 -0.009870146 0.0017378816 -0.010389834
旨味 0.0019002624 -0.006583731 0.005300932 0.007538267 -0.0018444739 -0.0064790226 -0.009015192 0.0081109945 0.0016187628 0.008390903 0.002217656 -0.0047210553 0.0026531417 0.009629256 0.009388159 0.006954917 -0.008724915 -0.009382633 0.007527957 -0.01075747 0.0044972207 0.00896238 -0.0018986273 0.0063745095 -0.008520806 0.006359323 0.0037236249 0.0016972874 -0.009697879 0.009618152 0.010166878 -0.0015567194 0.0051874835 0.0053831637 -0.0017549942 0.007233651 -0.0041659665 -0.0027624872 -0.0024870234 -0.007159013 -0.0009868452 -0.008911093 0.0030761373 0.009499199 0.006317871 0.0056817187 -0.005470687 0.004585878 -0.0060030255 -0.003734674 0.011173141 0.005666026 -0.005592235 -0.0061339764 0.005870529 0.0032877165 0.0071802987 -0.007299691 -0.0026748385 -0.0005943151 0.00084195466 0.0028550636 -0.0075476733 0.0041312193 -0.0052185184 0.009679184 -0.000371457 0.010581278 -0.0029134396 0.0074054445 -0.009291025 -0.00880989 0.0011382462 -0.0027658886 0.011651616 0.005296957 -0.006002863 0.007387204 -0.0009394351 -0.009023903 0.0049694907 -0.0023114833 -0.01115568 0.011289475 0.007128677 0.008582639 0.00088502193 0.009270833 0.0070316726 -0.0059728026 0.011001543 -0.0032647375 -0.009238615 0.008859906 -0.0018866523 0.0100460155 -0.0065712715 0.007401063 -0.0048972294 0.0033705116
海老 0.00911763 0.005450072 -0.0024155986 -0.0050610416 -0.008983948 0.0016074086 0.008105892 -0.0016822827 0.004660253 0.0065398933 -0.010071867 0.00030417898 -0.007772359 -0.0034067493 0.0011617034 -0.007948903 -0.004251751 -0.0094892625 -0.0068794987 -0.010200333 0.011232339 0.009289379 0.0010817895 -0.0031014243 0.0062264786 0.0012052291 -0.011184224 -0.008997367 -0.0005433837 0.0085127065 0.0050319503 0.010046034 0.007645788 -0.00066670787 0.008827352 0.01099001 0.007964202 0.0077415654 -0.010751726 0.00047330614 -0.008238338 -0.0084026875 -0.008873933 0.0034520684 0.0013600994 -0.0069967248 0.0046463143 0.0077412897 0.004739244 0.009295456 -0.0032546548 -0.0070086964 0.0032739267 -0.0031321212 -0.008680381 0.0043516196 -0.002783077 -0.005555482 0.0010038776 0.0072442302 0.0074801394 0.0008864783 0.007918147 0.002559737 0.0038790933 0.0005083169 0.0029703358 0.007856901 -0.011907979 0.007949385 -0.0007478676 0.006421619 0.0002339516 -0.0033927623 -0.0037952755 -0.002031986 -0.0028663725 -0.005048376 -0.000521155 0.008457279 0.0042492 -0.008035165 -0.009297685 -0.00022802352 0.004014313 -0.009406111 0.006628133 0.004722347 -0.0007356133 0.010197476 0.009761361 0.001126756 0.0053523276 -0.008980042 -0.0054064877 -0.0012707028 0.0104684 0.0013196211 0.0065845815 -0.0073238867
塩 0.0035825334 0.0016476458 -0.0011024137 -0.003158479 0.0056520933 -0.011280966 0.0056775734 0.008641236 -0.0035468796 -0.0047477866 -0.008480566 -0.008213624 -0.005871066 0.0039557256 -0.004674032 -0.0017442746 -0.0093167685 -0.0049702814 -0.000521198 -0.010891805 0.0044120355 0.010647276 0.005589231 0.0013680083 -0.0053648483 -0.0014156703 0.00080348965 -6.064598e-05 0.0075422586 -0.000589785 0.008662832 0.005849715 0.003895714 0.006483214 -0.0050369166 -0.002579307 0.006959917 0.0070944666 0.001994686 -0.006941384 0.0076413034 0.0016990644 -0.00069694966 0.009338201 0.0056828405 0.0031776747 -0.00084141316 -0.009296735 -0.0025107297 0.0036933005 -0.004619459 0.0064530037 0.0069593554 -0.00904213 -0.006422595 -0.005611155 -4.84454e-05 -0.002054224 -0.0037180262 -0.0019296778 0.004492514 0.01027495 -0.0051081064 -0.008705866 0.0013948967 -0.005354576 0.007055594 0.0038240189 -0.009544829 -0.0059051043 -0.010672264 0.002737829 0.0041543874 0.002010379 0.0019954848 0.0017222522 0.002919684 -0.0017803849 -0.009464826 -9.37424e-05 0.0029689127 -0.0028101325 -0.003682853 0.000111025176 0.007293721 -0.0030702578 0.00981715 -0.0024970893 -0.008281682 -0.005756049 -0.0030573837 0.0016733094 0.005527202 0.002472686 0.012199183 0.0024015477 0.0065967874 -0.0015730313 -0.0011274645 0.005667323
気 0.0013247454 0.00942615 -0.008573775 -0.008772688 2.6177854e-06 -0.0038846324 -0.0018427388 0.0023913342 -0.0060817203 -0.008729024 0.0072944188 -0.004907856 -0.0035868858 -0.0010990666 -0.0012138884 -0.010043246 -0.0018731165 -0.0028486706 0.0088106925 -0.0106788045 -0.0035921736 -0.0012631388 0.0039960197 -0.0066684573 -0.005816017 -0.008122339 0.0039989315 -0.010343968 -0.0043506874 0.00079770206 0.0029967194 -0.01015376 0.009309117 -0.002942937 0.0001783041 -0.0074866624 -0.008376455 0.0024958237 0.0030767994 0.00064009894 0.0060505825 -0.007973558 -0.0015443978 -0.0025363867 -0.00024235711 0.0035262997 0.0006210097 -0.007854741 0.003947131 0.0073990324 -0.0052598086 0.0024178126 -0.0047662253 0.008822504 0.003152536 0.0026427999 -0.00034806624 -0.0093355775 0.0072771506 -0.0014501336 0.007948317 0.0043256218 -0.008838614 -0.0010491812 0.0004141749 -0.0014281122 0.010353131 -0.003894412 -0.008735649 0.0056522675 -0.004835598 -0.0066063027 0.00352665 0.0046113706 -0.003916694 -0.0038559993 -0.007370886 0.0014260735 -0.0061150873 0.008926653 9.968987e-06 0.0014075134 -0.004861155 0.009722164 -0.00073010806 -0.008221445 -0.0071212603 0.0015405944 0.009393524 0.003844375 -0.004101159 -0.006301181 -0.009535377 0.0040876814 -0.006865077 0.0045554005 0.00266138 -0.002488893 -0.009125464 0.005603905
自分 -0.0009109817 -0.008550808 -0.0077514215 0.008619762 0.0028444398 -0.010893764 -0.00018290013 0.009090327 -0.010894774 -0.0076854164 -0.0022013339 -0.01198421 -0.00030659972 0.002610917 0.0087207155 -1.6647367e-05 0.0011623908 0.0030272652 -0.004331245 0.0035892376 0.0014936618 0.00035041064 -0.008272672 -0.00013271451 0.0064284266 0.0014111955 -0.010041391 -0.005285946 -0.0078043514 0.006503569 -0.0044042403 0.0051315017 -0.004256935 -0.007925659 -0.0075844238 0.005498394 -0.009026185 -0.0076535563 -0.008550404 -0.0073703956 -0.004081122 0.00032221008 0.006089656 -0.00086334825 -0.003902153 0.00078147213 0.0046738475 -0.0056175026 -0.0046715 0.006841996 0.007630438 -0.008746296 0.0075863106 -0.009830959 -0.008834752 -0.0051537897 0.0026498616 -0.00030077578 0.0013176032 0.007294877 0.005653011 -0.002336582 -0.0074417405 -0.008932659 -0.0035770333 0.011165714 -0.0069680274 0.005230526 0.0020947687 -0.002017263 -0.008978958 -0.0051981593 -0.0032022211 -0.007879031 0.007696389 -0.006950469 -0.003309968 0.00412078 -0.0014523999 -0.007132502 -0.005773636 0.0032824522 0.0005462304 0.0011541067 -0.00076224346 0.0029031553 0.0016529716 -0.0010456695 0.007621823 -0.0066215815 0.007978076 -0.009556503 -0.001632881 0.007361731 0.0002451944 0.008512877 0.0064517674 -0.009798057 0.00064318185 -0.0052625057
テラス -0.008729072 0.00042411446 0.0062395725 0.0088744555 -0.0045171008 -0.005111798 -0.0057179253 0.004221176 0.0013658049 -0.010436584 0.0015349352 -0.010806784 -0.00043771503 0.0057256613 -0.0052416357 -0.0008341053 -0.002101708 -0.010555722 -0.0022505359 0.0013282943 -0.007210488 -0.005019475 0.00082869054 0.0076224227 0.0010387241 0.009381915 -0.009584625 0.0072134663 -0.006301347 -0.00588248 -0.0061331694 0.0017002919 -0.001823601 0.0067275222 -0.00036342832 0.004283734 0.0056326147 -0.010491604 -0.0031965964 -0.0077031567 -0.008813369 0.002120058 0.001914303 -0.0018978596 -0.00066218467 -0.007641978 -0.0041108322 0.0008879922 0.008606889 0.0083462335 -0.0025160154 0.0028312737 -0.0033203508 -0.004949095 -0.004803952 -0.0052821133 0.004454424 -0.008159957 -0.009181542 -0.004169799 0.008069622 0.00255074 0.004798864 0.007749598 -0.008823579 -0.0034912846 0.008422009 0.006307903 0.0028036768 0.011092223 0.0074554672 -0.0023762248 0.0027657335 0.0047669904 0.0107439365 0.010563298 -0.008457482 -0.005377435 0.0034600212 0.001392941 -0.00073151337 0.007289191 0.0048267753 -0.0045777475 -0.0027088458 -0.0085324515 0.0073102713 0.00423058 4.5372482e-05 0.0028019603 0.009147471 0.008694452 0.0064440463 0.0032724442 0.0047220327 0.009744814 0.0026434818 -0.0014630524 -0.008801414 0.0019181179
後 -0.0092044715 0.0077124117 -0.0061154193 -0.0018436183 0.0016558644 -0.004116569 -0.008373667 0.0072660875 -0.007763931 -0.0094607 0.002992538 -0.0025489572 0.0058234013 -0.006490921 0.0008372319 -0.0014023666 0.0056712814 -0.011233822 0.006100393 -0.012110069 -0.0066800904 0.0015257274 -0.0013927693 -0.004455832 -0.00566261 0.0038384395 -0.011072463 -0.00046686133 0.0027820924 4.439874e-05 0.0011115524 0.007106 -0.008634288 -0.010063825 0.0042338404 0.010202763 -0.00812517 -0.009704686 -0.0017271681 -0.011624328 0.0023225392 0.008180067 -0.0065269 -0.0065929894 0.0104183685 -0.0014914608 -0.004512777 -0.0032000074 -0.007973578 -0.0035724898 -0.0030356133 -0.0006091571 0.00018591549 0.0076248273 0.0057473434 -0.0010188686 -0.009447001 0.002285136 -0.007840179 0.0094978865 0.0046198918 -0.0004990912 0.006047689 -0.003846034 -0.006054604 0.0008841879 0.008951559 0.00721936 -0.00017686508 0.005707144 -0.0045004226 0.009474864 -0.0055617983 -0.0038431894 -0.0036384317 0.009484028 -0.0034034566 -0.0026109365 0.0057218196 -0.009138624 -0.0036909124 0.002523776 -0.007972099 0.011181119 0.0009852325 -0.005117155 0.005294508 0.009406229 0.0026199443 0.0076832226 -0.0054318695 -0.0032770967 0.0105088195 0.0060907225 0.004666044 -0.0019552347 0.005443171 0.00070724933 0.009207405 -0.0002633443
マグロ 0.007923907 -0.0048600486 -0.007876332 -0.0013122975 0.0035949976 -0.0041056615 0.0064924066 -0.00532367 -0.010279417 0.0071096728 0.0055855373 -0.0057393783 -0.004636914 -0.0026853702 4.7923753e-05 0.008499401 0.0009027614 -0.0036430883 -0.0032311322 -0.0048365598 -0.008041388 0.007609113 -0.007819271 -0.0037396862 -0.0072162217 0.008992309 0.0040778453 -0.0019334555 0.0026268994 -0.001970864 0.011584386 -0.003379889 0.0056056916 -0.0045327805 0.009592611 0.011038093 0.0060487795 -0.0018673954 -0.0026007893 -0.011230956 0.0090181725 -0.00964285 -0.0069145677 0.0057791495 -0.0011487772 0.0071161203 -0.008777394 0.009063169 0.003021584 -0.007409061 0.0053153443 -0.0056121107 0.0056465142 0.0066005057 -0.009971488 0.0069642896 0.005837398 0.0063875555 -0.008498625 -0.0064564887 -0.008138875 0.005759999 -0.0047246655 0.0043932213 0.0024093834 0.009282469 0.0029182497 0.00014529494 -0.00027990952 0.0048381896 -0.010341425 -0.005822162 0.00027360918 0.0043548313 0.0012683047 -0.0089577185 -0.0012761499 0.007434424 0.004923632 0.0038919023 -0.005224855 -0.0040788157 -0.00381335 -0.0035994938 -0.008792838 -0.0003433551 0.002098177 0.006101076 0.0051442483 0.009419503 -0.005438598 0.0096459985 -0.0029481377 0.0011828463 -0.0012890031 -0.0026995467 -0.00035641843 -0.009368228 0.009944451 0.0040356633
チキン -0.002911616 0.0033814125 0.0075735427 -0.0056761988 0.0046902667 -0.0020235465 0.00350776 0.0013506195 -0.011329129 0.0052014724 -0.0025309415 -0.010604885 -0.0004558864 -0.0051658493 0.007956752 -0.0075824237 -0.0016489286 -0.0025295154 -0.0041402597 -0.007218421 0.008698798 0.0030446367 -0.007926114 -0.0008757657 -0.0098595815 -0.0033118234 0.0027820687 0.001953831 -0.0075458367 0.002066002 0.008095639 -0.0076116794 -0.002504683 -0.0034284408 -0.008727925 0.0042445348 0.006442269 0.00062386313 0.00094678707 -0.0040126895 -0.0010623204 -0.007557373 -0.00088179595 0.006864985 0.004299001 -0.0003721437 0.0069823735 0.0027005514 -0.0066350745 0.008798011 0.010973942 -0.010025067 0.006749558 -0.0076366714 -0.0016203454 0.0056076893 -0.004906584 -0.008382796 -0.009350849 -0.009667324 -0.006042731 0.01041188 0.0020237602 -0.00963234 0.0056208535 0.008518064 0.008818612 0.011217539 -0.01117689 0.00020678503 0.0003708445 0.0026762462 0.0068219015 -0.0084983865 0.0066372147 0.010789829 -0.009609998 0.007829829 0.0015232293 -0.0036560376 -0.0025862264 -0.009040447 -0.009338797 0.008432897 -0.003183361 0.010082513 -0.0077636056 -0.005411859 0.008667806 0.009117757 0.0054952307 0.007885466 0.007207027 -0.0055300132 0.01236094 -0.0044988175 -0.0014516385 -0.008278906 0.0073937657 -0.005189718
一 0.0023850526 -0.00033405423 -0.0013119562 -0.0057519334 -0.005268757 -0.0058052237 0.0008106382 0.004492065 -0.004536426 0.0014157238 -0.006622458 0.008306804 -0.00142918 -0.006094836 -0.0018982112 0.0071288487 -0.0012608875 -0.0066295112 -0.0078264875 -0.008854776 -0.0020966488 0.008546906 -0.006041535 0.0010615101 -0.00037452913 0.0038541185 -0.009500035 0.0066161063 -0.0038583651 0.0057662465 -0.007980074 0.0050800685 -0.0074763913 -0.004124572 -0.001056997 -0.002195727 -0.0007409408 -0.0013604562 0.0034847313 -0.0047787325 -0.0040735803 -0.0072624944 0.00798494 0.0048632566 0.010414524 0.004929975 -0.0053869374 0.008091083 -0.0063898726 0.0041347584 -0.002462665 -0.00049338565 0.0032848734 -0.0029601865 -0.0055912565 -0.001481767 0.0011048601 0.0061447043 -0.0075774095 0.0050863745 -0.002907474 -0.0075476062 -0.006155769 0.0016897867 0.0066264924 0.008997302 0.009818842 0.008068725 -0.00473879 -0.0006183836 0.007511761 0.0068120784 0.0073653576 0.0062682508 0.0033640182 0.003064067 -0.008490461 0.0073314165 0.008237292 -0.0066342684 0.00032583717 0.008460553 0.0020903144 0.009190654 0.0076353764 -0.0019701424 0.009159812 0.0074198893 -5.762006e-05 0.0009922255 0.01121394 0.006187318 -0.0063708774 -0.00327591 -0.0006114652 0.004497954 0.0022174686 -0.010256833 0.0032170292 0.009282824
馬刺し 0.001620868 0.0054961815 0.0014801115 0.008214333 0.009506829 0.0010225581 -0.0019845224 0.006617066 -0.008759114 0.007866869 -0.005080703 0.008633727 -0.010614198 -0.0017001585 0.008910448 -0.005031894 -0.0020032185 0.0034990164 0.009760869 -0.0030963025 -0.0057838736 0.010901245 -0.008323487 0.0008728491 0.0055153347 -0.008111264 -0.007503391 -0.0107368985 -0.0014393879 0.0055833794 -0.0067314096 -0.0031674502 0.009279055 -0.0055216034 0.003235477 0.0052110916 -0.0038536226 -0.0067967516 0.007218748 -0.0052222465 0.008780184 -0.003535148 0.002795888 0.0060299984 0.0019332962 0.0038037535 -0.0069439826 0.008218377 -0.0008122237 -0.003311617 0.0063788705 0.009435685 -0.00622708 0.00077774737 0.003297936 -0.0020112533 0.0011871337 0.008991022 0.0062172506 -0.0061540734 -0.0022991458 0.009858966 -0.0010028083 -0.010018011 -0.002921286 -0.0057084356 0.0017665586 0.0018192998 -0.006103704 -0.0025351355 0.0072079245 0.005131017 0.0038670038 0.0012803549 0.010173795 -0.0041508656 0.005691328 -0.0011399606 -0.0091806725 -0.009156434 -0.002391429 0.007825728 0.0005376323 -0.006552919 0.0011283517 -0.0033935169 -0.0037382902 0.009574263 0.0075420914 0.0012125288 0.0039050058 0.0014181784 -0.01010612 0.0030740902 0.00995954 0.005486743 0.0036434936 -0.0052751387 0.002953765 -0.008447636
明太子 0.0037808886 0.0034326299 -0.00046590163 -0.00026384497 0.003296472 0.00035379556 0.0018844482 0.011786888 0.0026542207 0.00090911746 -0.0036895964 -0.0077259205 -0.009892548 -0.0026713237 0.0043512606 0.006976676 0.00060334365 -0.0060576876 0.0038666967 -0.0065058796 0.0003059177 0.00972077 0.009092574 -0.00087729126 -0.0063222903 0.0035490708 0.008689589 0.0074857576 -0.0028783 0.007654746 0.010788355 -0.009751078 0.009362946 -0.00050965673 -0.005205215 0.0048176106 0.009114309 -0.008413961 0.0059825666 -0.008594238 -0.007824476 0.0046767783 -0.0049222596 0.005143121 0.008460173 0.0090224575 0.00510836 -0.009082724 0.0040021166 -0.0079952115 0.0005741258 0.009352624 -0.0055818534 0.0040697437 -0.006802669 -0.0075353053 0.008810145 0.0029024533 0.006336615 0.0031025272 0.0017297986 0.0041159857 -0.008855658 0.0062549794 -0.0066496753 0.005642292 -0.0048726345 0.002003007 0.002529035 -0.0010618913 -0.0089331 -0.0059075328 -0.008880891 0.009297424 -0.0030088536 -0.00046354815 -0.009476632 -0.0046153357 -0.0062390286 0.003362798 0.0051586633 0.0032577368 0.008445511 0.0038598902 0.009852186 0.007508303 0.0029432706 0.003229235 -0.0058323047 -0.001559998 0.0068319994 -0.007864347 0.0026368021 -0.0073473593 0.012578531 0.0012017742 0.0019768195 -0.006442392 0.006992542 -0.0077516893
品 -0.008157522 0.007890986 -0.003669824 -0.00084587716 0.0061068945 0.0023911588 0.006906526 0.010336309 0.0043831123 -0.009491821 0.004114663 0.0071663894 -0.004817993 0.0018469427 -0.0034687214 -0.0043544355 0.008635644 -0.0021253042 0.00368112 -0.008624301 0.0070354254 -0.0024347526 -0.003724683 0.0016672863 0.009466285 -0.0063414555 0.0019288812 -0.0026627746 -0.0087460065 -0.0038269428 -0.006300459 0.005658421 -0.0019741117 -0.0059878263 0.0010279382 0.006113968 0.009479514 -0.011499153 -0.0014220361 -0.0039886725 -0.0029426885 -0.0017670187 0.007853697 -0.0015297515 0.0106946975 -0.00044361298 -0.0018693823 0.0067729885 0.007824729 0.0017052871 0.00088449696 0.0056058676 -0.0045039905 0.0046265875 -0.001213712 -0.0054551773 0.007173887 -0.004498754 0.00042997333 -0.006711838 0.0033841622 0.006208338 0.004516269 -0.008655045 -0.008627753 0.008363749 0.003795698 0.0024993129 -0.008148107 0.00077949266 -0.010756476 0.0015509279 -0.0030352902 0.00017650497 0.0063081887 0.0030638697 -0.00757919 0.0007369163 -0.0082053095 -0.0034058022 0.0010215052 0.0075998968 -0.008307031 0.004980228 0.008130248 0.00990806 0.006448397 -0.0059029935 0.0057334304 0.009825052 0.005687748 0.0029338526 -0.0011424234 0.0038555367 0.0074036215 0.01056121 -0.002476644 -0.0107639665 0.0075665903 -0.0068212487
魚 -0.0012443766 0.0024382975 -0.0014356785 -0.0040266956 0.0015030754 -0.011893402 0.0019145955 -0.0013446047 -0.007011423 0.0033849452 0.00043560835 0.0020758305 0.00033965104 -0.008974477 0.009909612 -0.004427088 -0.0023769503 0.0057194605 0.00026554245 0.00044926204 0.0033520255 0.00301714 0.008117508 0.0089193545 -0.00093925203 -0.003590899 0.003054568 -0.010081494 0.0072566946 0.0028016616 0.0076460396 0.0027384886 -0.000486818 -7.004339e-05 -0.0051591853 0.010527295 0.0047510886 0.0021374228 -0.0058278027 -0.011196888 0.007973119 0.0020259193 -0.004659018 -0.008583717 -0.0025963744 0.000549544 -0.010065698 -0.00014449157 0.0033013045 -0.008885415 0.0009045187 -0.0067729605 -0.0041238274 -0.001644645 -0.010914006 -0.0032332623 -0.006500702 -0.0073438305 -2.7944516e-05 0.0027753806 0.010223693 0.00942255 -0.0071171797 -0.009542166 0.0055825794 0.006549422 0.0076736966 -0.0018399846 -0.006897997 -0.0027167972 -0.009878567 0.006417537 -0.002108062 0.008161736 -0.0041883923 0.010526008 -0.004817268 0.008613432 -0.0069373026 -0.007104489 0.006932074 -0.01003967 -0.010344112 0.0074096285 -0.01002224 0.005541942 0.0040411893 -0.005620462 0.0046887174 0.0023374197 0.010030513 0.003315852 -0.004802048 -0.0019968518 0.009593886 -0.0053188363 0.010354393 -0.004862529 -0.004021236 -0.004553523
生 0.0022904577 -0.008393534 0.0028311287 -0.0045760954 0.010430722 -0.0075171357 -0.00751069 0.0070472993 0.007959834 0.002289699 -0.0034776244 0.0018013656 -0.009968276 -0.0032101294 -0.0043897247 0.000968879 -0.006394765 -0.009375155 -0.0061214454 0.0020087434 0.0039540515 0.009606382 0.0036447002 0.004773012 0.004184276 0.0043523307 -0.0069329934 -0.00036310707 -0.0013581032 0.0059848507 -0.004860574 -0.0007494722 0.004954725 -0.005888237 -0.0085161105 0.0073882043 -0.0011346936 -0.0015029277 -0.0072984737 0.005549581 0.00085765845 0.00050125574 -0.0006884631 0.0010496718 0.007254118 -0.010077802 0.0014806392 -0.0058668107 0.010172974 0.0056266766 -0.004172375 -0.0019586554 -0.006156346 0.008583695 0.007962111 0.003024034 0.010435125 -0.0049277707 0.0009896007 -0.004778226 -0.007819376 -0.0034696958 -0.0022468322 -0.006005488 -0.0071336147 0.0018886424 0.0007288223 -0.006968316 0.004951767 0.0038097536 -0.0112644425 -0.0012780466 -0.0059070345 0.0069458922 0.0008625318 0.008820038 0.0045542833 -0.004253016 -0.010747038 -0.0058417665 0.0079760635 -0.0019614235 -0.0021116412 0.0030739522 -0.008361705 0.0044425735 -0.0077604726 0.011026757 -0.0060252002 0.008863881 -0.0004682299 -0.0014971258 -0.0021908903 0.0013115903 0.005665215 0.0033328633 0.00048157157 0.005621436 -0.005541186 -0.008496325
アラカルト -0.008054337 0.0074095847 -0.002160826 -0.004989978 0.0055345236 -0.010010546 0.0032457346 0.012374507 0.0059201545 -0.0037122231 0.0014158136 0.0033246547 0.008647257 -0.0018977586 0.0012745446 -0.005015786 -0.0032702726 -0.0003618762 0.0023413969 -0.008123028 0.005346892 -0.004550323 -0.0034088448 -0.009463988 0.0075415974 0.0041946084 -0.0037431528 0.006982315 0.00074238895 -0.009484112 -0.006319532 -0.0043583964 -0.0065862453 0.006636514 0.0050759735 0.0037435028 -0.0008215036 -0.008776901 0.0050590816 -0.0075024473 -0.0026009015 -0.0070064818 -0.0026704918 -0.0091794925 0.0045476477 -0.0083555775 0.006167909 -0.0078004007 -0.0052320613 0.00095345447 -0.0070738224 0.00467129 -0.0046047517 0.00040125975 0.006711779 0.0036927594 0.0007184522 0.007243848 -0.0016832531 0.0058426913 0.0064580366 -0.0075142323 0.0014872572 -0.009965085 -0.003470058 0.009705585 -0.0018182417 -0.0037109442 0.0012453411 0.009252946 0.005135329 -0.0063410597 0.008578752 0.0073366426 -0.0038918983 -0.00035172948 -0.0011318362 -0.009669444 -0.0035495006 0.010256831 -0.003384106 -0.008018059 -0.0056475736 -0.0073120208 0.002104876 0.0060623395 0.0011073042 -0.0022463845 0.01110657 -0.008666557 -0.0033013055 -0.009173879 0.010154305 -0.0015934447 -0.002692907 -0.0063886396 0.009350924 -0.0047672587 -0.0050873505 0.003565216
